%YAML:1.0
---
opencv_ml_svm:
   format: 3
   svmType: C_SVC
   kernel:
      type: CHI2
      gamma: 5.0625000000000009e-01
   C: 6.2500000000000000e+01
   term_criteria: { epsilon:1.1920928955078125e-07, iterations:1000 }
   var_count: 19
   class_count: 8
   class_labels: !!opencv-matrix
      rows: 8
      cols: 1
      dt: i
      data: [ 1, 2, 3, 4, 5, 6, 7, 8 ]
   sv_total: 346
   support_vectors:
      - [ 3.80108923e-01, 3.02350223e-01, 3.21810991e-01, 6.21608317e-01,
          1.16045994e-03, 1.05496356e-03, 2.74290540e-03, 3.37588340e-02,
          1., 5.30013680e-01, 6.50912523e-02, 4.07743424e-01,
          3.54467779e-02, 1.05496356e-03, 8.43970862e-04, 3.16489080e-04,
          1.05496358e-04, 1.05496358e-04, 0. ]
      - [ 5.10154665e-01, 6.40078187e-01, 6.99332535e-01, 6.43478274e-01,
          0., 0., 1.67926119e-04, 1.25944585e-04, 3.77833756e-04,
          1.04534011e-02, 1., 2.12216631e-01, 3.48446704e-02,
          3.48446704e-03, 1.80520583e-03, 1.67926119e-04, 8.39630593e-05,
          0., 4.19815296e-05 ]
      - [ 6.69302404e-01, 8.58422935e-01, 7.91552186e-01, 8.95652175e-01,
          0., 0., 0., 0., 0., 1.45900520e-02, 1., 8.35967660e-01,
          8.35227594e-02, 1.42200142e-02, 1.05725012e-04, 0., 0., 0., 0. ]
      - [ 5.82993150e-01, 7.40960956e-01, 7.30072439e-01, 7.65217364e-01,
          1.50483422e-04, 0., 0., 0., 7.52417109e-05, 1.10229105e-02,
          9.99999940e-01, 1.54960304e-01, 2.65603233e-02, 3.02095469e-02,
          1.34682665e-02, 5.53026563e-03, 3.38587700e-03, 2.14438885e-03,
          1.88104284e-04 ]
      - [ 5.90559602e-01, 7.45929718e-01, 8.29977036e-01, 6.86956525e-01,
          0., 0., 8.97384161e-05, 2.69215263e-04, 2.69215263e-04,
          1.61529146e-02, 1., 4.62107986e-01, 1.86655913e-02,
          7.17907329e-04, 5.83299727e-04, 4.48692081e-05, 4.48692081e-05,
          0., 4.48692081e-05 ]
      - [ 6.01030707e-01, 7.65655816e-01, 7.45442331e-01, 8.00000012e-01,
          3.72370123e-05, 0., 0., 0., 4.46844148e-04, 1.49022520e-01,
          9.99999940e-01, 5.68236820e-02, 2.92310547e-02, 1.46713825e-02,
          2.90448684e-03, 3.83541221e-03, 1.63842854e-03, 1.30329537e-03,
          7.44740246e-04 ]
      - [ 4.58258331e-01, 5.76096833e-01, 6.30167544e-01, 5.99999726e-01,
          0., 0., 4.07099833e-05, 0., 2.03549920e-04, 1.05845951e-03,
          4.46588509e-02, 1., 8.45953450e-02, 1.05438856e-02,
          2.56472896e-03, 8.54909653e-04, 4.07099833e-05, 0., 0. ]
      - [ 5.63522995e-01, 6.72938347e-01, 6.53222442e-01, 7.56521463e-01,
          0., 0., 6.58284480e-05, 1.97485351e-04, 1.05325517e-03,
          8.79468098e-02, 9.99999940e-01, 2.93594867e-01, 1.58712387e-01,
          1.28628790e-01, 7.37936869e-02, 1.88927650e-01, 3.87071259e-02,
          1.05983801e-02, 2.51464676e-02 ]
      - [ 5.37689507e-01, 6.09039843e-01, 6.99332297e-01, 5.56521475e-01,
          0., 1.72008484e-04, 5.73361613e-05, 8.60042404e-04,
          1.12436213e-01, 1., 3.02218914e-01, 1.36288062e-01,
          7.50530362e-02, 2.69479956e-02, 7.79771805e-03, 3.72685050e-03,
          1.72008484e-04, 5.73361613e-05, 0. ]
      - [ 4.59405750e-01, 4.92704183e-01, 5.30263126e-01, 5.91304362e-01,
          0., 0., 0., 0., 0., 8.98553350e-04, 1.21439487e-01, 1.,
          2.36319527e-02, 1.84203428e-03, 2.69565993e-04, 0., 0., 0., 0. ]
      - [ 3.69044363e-01, 4.61367726e-01, 5.14893234e-01, 5.47826111e-01,
          7.96368549e-05, 0., 7.16731709e-04, 2.69968938e-02,
          7.61169076e-01, 1., 1.06474474e-01, 2.61208881e-02,
          1.79979298e-02, 1.24233495e-02, 4.06147959e-03, 1.43346342e-03,
          0., 7.96368549e-05, 1.59273710e-04 ]
      - [ 3.42102945e-01, 4.28209424e-01, 4.61098403e-01, 5.21739125e-01,
          0., 0., 8.45022791e-04, 5.40814595e-03, 8.15109015e-01, 1.,
          4.36031781e-02, 3.76035161e-02, 5.32364361e-02, 3.48994434e-02,
          9.29525122e-03, 5.15463902e-03, 9.29525064e-04, 1.69004561e-04,
          0. ]
      - [ 5.06371439e-01, 6.33519411e-01, 6.91647530e-01, 6.34782612e-01,
          2.59591936e-04, 1.03836770e-04, 5.19183850e-05, 5.71102253e-04,
          1.03836774e-03, 6.38596155e-03, 1., 4.74845558e-01,
          5.90312034e-02, 6.48979796e-03, 1.86906185e-03, 3.11510317e-04,
          1.55755159e-04, 0., 1.03836770e-04 ]
      - [ 5.23530304e-01, 6.23879969e-01, 6.91647291e-01, 6.52173638e-01,
          0., 0., 0., 2.19282228e-04, 1.46188147e-04, 2.09780000e-02, 1.,
          9.42182600e-01, 1.15342446e-01, 5.87676354e-02, 1.05986409e-02,
          5.11658518e-03, 1.46188147e-04, 7.30940737e-05, 0. ]
      - [ 2.11962089e-01, 2.36679524e-01, 1.99809372e-01, 3.91304344e-01,
          0., 0., 0., 3.75328411e-04, 6.66833445e-02, 9.99999940e-01,
          9.08795178e-01, 1.79657191e-01, 3.97848114e-02, 1.25109465e-04,
          0., 0., 0., 0., 0. ]
      - [ 5.60942888e-01, 7.07736373e-01, 6.91647291e-01, 7.56521463e-01,
          0., 0., 0., 0., 1.53131550e-04, 5.05946636e-01, 1.,
          5.85983358e-02, 4.21111733e-02, 2.34291255e-02, 7.29927002e-03,
          1.48027157e-03, 4.59394621e-04, 5.10438462e-04, 1.53131550e-04 ]
      - [ 6.89461052e-01, 8.91548097e-01, 8.45346749e-01, 8.78260612e-01,
          0., 0., 3.54396288e-05, 3.54396288e-05, 3.18956649e-04,
          1.14824399e-02, 1., 2.85289019e-01, 3.79204042e-02,
          1.98461930e-03, 1.77198148e-04, 2.48077413e-04, 0., 0., 0. ]
      - [ 3.56911153e-01, 4.43943888e-01, 4.76468354e-01, 5.47826111e-01,
          6.08939226e-05, 6.08939226e-05, 2.07039341e-03, 2.56363414e-02,
          1., 3.33820492e-01, 2.97162347e-02, 1.69285107e-02,
          1.89989042e-02, 1.91206913e-02, 8.58604349e-03, 9.49945208e-03,
          1.33966631e-03, 4.87151381e-04, 0. ]
      - [ 6.30322695e-01, 8.03948522e-01, 7.45442331e-01, 8.60869586e-01,
          3.28839204e-04, 0., 8.22098009e-05, 4.11049004e-05,
          9.04307817e-04, 3.08697790e-01, 1., 8.79233852e-02,
          2.29365341e-02, 9.74186137e-03, 3.69944097e-03, 2.34297942e-03,
          1.06872746e-03, 6.57678407e-04, 5.34363731e-04 ]
      - [ 6.80881500e-01, 8.82389009e-01, 8.68401885e-01, 8.43478262e-01,
          0., 0., 0., 0., 0., 9.65441093e-02, 1., 1.32710472e-01,
          2.32737269e-02, 3.08083859e-03, 9.37646546e-04, 0., 0., 0., 0. ]
      - [ 6.18878067e-01, 5.27833462e-01, 8.11533153e-01, 5.13043463e-01,
          5.83187584e-03, 9.99750104e-04, 2.83262529e-03, 9.69757587e-02,
          1., 7.76389241e-01, 7.23985732e-02, 4.05731909e-02,
          4.38223779e-02, 1.68291274e-02, 1.24968765e-02, 7.16487598e-03,
          5.08206291e-03, 1.99950021e-03, 5.41531295e-03 ]
      - [ 5.55363119e-01, 7.01922894e-01, 7.30072439e-01, 7.30434775e-01,
          3.59337391e-05, 0., 0., 1.43734957e-04, 1.43734957e-04,
          2.41115391e-02, 1., 1.12328872e-01, 1.02411155e-02,
          1.90448819e-03, 1.04207848e-03, 1.43734957e-04, 7.18674783e-05,
          0., 0. ]
      - [ 4.44003969e-01, 5.54416418e-01, 5.99427879e-01, 6.00000024e-01,
          0., 0., 2.02716386e-04, 1.68930329e-02, 6.55246973e-01,
          9.99999940e-01, 2.51368321e-02, 2.47989725e-02, 3.66916656e-02,
          4.09487113e-02, 2.28393804e-02, 1.83120482e-02, 7.02750171e-03,
          3.17589007e-03, 1.41901476e-03 ]
      - [ 3.10135692e-01, 3.91904205e-01, 4.53413427e-01, 4.69565213e-01,
          3.82741797e-03, 1.39178839e-04, 4.17536532e-04, 2.57480843e-03,
          1.04662485e-01, 9.99999940e-01, 3.24982584e-01, 5.26791923e-02,
          2.29645092e-02, 1.00208763e-02, 1.22477375e-02, 1.02992337e-02,
          5.63674280e-03, 2.50521908e-03, 1.87891431e-03 ]
      - [ 5.27543128e-01, 6.55597329e-01, 6.30167782e-01, 7.21739113e-01,
          3.64338557e-05, 0., 3.64338557e-05, 0., 7.28677114e-05,
          3.64338557e-05, 7.60374591e-02, 1., 3.47943306e-02,
          1.34805264e-03, 6.19375554e-04, 3.64338572e-04, 7.28677114e-05,
          3.64338557e-05, 3.64338557e-05 ]
      - [ 4.77308869e-01, 5.99284470e-01, 6.30167782e-01, 6.26086950e-01,
          0., 0., 0., 0., 1.11150404e-03, 2.71105945e-01, 1.,
          1.14889100e-01, 4.14287858e-02, 2.70802807e-02, 3.43555794e-03,
          1.51568733e-04, 0., 0., 0. ]
      - [ 1.55498952e-01, 5.29506281e-02, 9.99046266e-02, 2.26086691e-01,
          0., 0., 0., 0., 0., 1.06632542e-04, 1.82341654e-02, 1.,
          2.51013011e-01, 1.91938574e-03, 8.53060337e-04, 2.13265084e-04,
          1.06632542e-04, 0., 0. ]
      - [ 7.04269409e-01, 8.96417499e-01, 8.14607084e-01, 9.56521749e-01,
          0., 0., 0., 7.55943620e-05, 4.15768998e-04, 9.67607833e-03, 1.,
          3.64289224e-01, 5.20467199e-02, 7.89961126e-03, 1.88985898e-04,
          0., 0., 0., 0. ]
      - [ 5.00467062e-01, 6.24592125e-01, 6.68592632e-01, 6.52173936e-01,
          0., 0., 4.00608915e-05, 8.01217830e-05, 2.12322734e-03,
          8.26856792e-02, 1., 8.35670233e-02, 1.77469756e-02,
          1.12170493e-03, 7.61156960e-04, 3.20487132e-04, 4.00608915e-05,
          0., 2.80426233e-04 ]
      - [ 2.66304076e-01, 2.63444692e-01, 4.53413427e-01, 2.34782606e-01,
          1.01667341e-04, 0., 1.22000813e-03, 1.40300933e-02,
          9.99999940e-01, 4.96136636e-01, 1.01464003e-01, 2.51321673e-01,
          1.59617718e-02, 1.01667340e-03, 3.05002031e-04, 0., 0., 0., 0. ]
      - [ 5.59375882e-01, 7.10154533e-01, 7.45442331e-01, 7.13043451e-01,
          0., 0., 1.23069345e-04, 6.15346726e-05, 1.84604025e-04,
          8.24564602e-03, 5.82364142e-01, 9.99999940e-01, 3.17949653e-01,
          6.89803660e-02, 1.78450556e-03, 3.07673356e-04, 3.07673356e-04,
          0., 0. ]
      - [ 7.02931762e-01, 9.13659155e-01, 8.60716939e-01, 9.04347837e-01,
          8.08668919e-05, 0., 4.04334460e-05, 2.02167226e-04,
          2.17936281e-02, 4.31788772e-01, 1., 8.25246647e-02,
          8.57189018e-03, 7.03541981e-03, 4.28594509e-03, 1.37473713e-03,
          1.21300342e-04, 0., 1.61733784e-04 ]
      - [ 3.19728136e-01, 3.87399167e-01, 4.53413427e-01, 4.52173918e-01,
          4.67814389e-04, 4.67814389e-04, 1.21631741e-03, 9.16916225e-03,
          8.36545706e-01, 1., 7.52245560e-02, 7.39146769e-02,
          7.28854835e-02, 1.70284435e-02, 1.12275453e-03, 1.87125755e-04,
          0., 0., 0. ]
      - [ 2.45456994e-01, 2.21557885e-01, 3.61193776e-01, 3.39130431e-01,
          2.61415116e-04, 4.35691880e-04, 6.09968614e-04, 1.82990590e-03,
          2.26559769e-03, 3.35047036e-01, 1., 1.29400492e-01,
          1.74276754e-02, 8.80097598e-03, 2.96270475e-03, 2.61415116e-04,
          0., 0., 0. ]
      - [ 5.44797063e-01, 6.79662764e-01, 6.30167544e-01, 7.82608449e-01,
          0., 0., 0., 4.46189551e-05, 3.12332675e-04, 2.08995193e-01, 1.,
          1.43494561e-01, 3.76583971e-02, 8.12064949e-03, 1.33856869e-04,
          1.33856869e-04, 4.46189551e-05, 0., 4.46189551e-05 ]
      - [ 6.27093613e-01, 7.99460053e-01, 7.68497288e-01, 8.26086938e-01,
          1.95045839e-04, 0., 0., 3.90091664e-05, 2.34054998e-04,
          1.92315187e-02, 1., 1.48429871e-01, 7.36493096e-02,
          4.50165793e-02, 3.48741934e-02, 3.08952592e-02, 6.31948514e-03,
          1.95045827e-03, 9.75229137e-04 ]
      - [ 4.30762798e-01, 5.31228781e-01, 6.30167544e-01, 5.04347563e-01,
          0., 0., 0., 5.59741631e-04, 9.04198037e-04, 2.15285248e-03,
          9.03336927e-02, 1., 5.22712581e-02, 2.49730889e-03,
          1.29171152e-04, 0., 0., 0., 0. ]
      - [ 5.58821857e-01, 7.02022314e-01, 6.45537734e-01, 8.17391276e-01,
          3.95178831e-05, 3.95178831e-05, 3.95178831e-05, 3.95178831e-05,
          1.97589412e-04, 4.27978672e-02, 1., 1.93953767e-01,
          2.09839959e-02, 4.42600297e-03, 1.18553653e-04, 3.95178831e-05,
          7.90357662e-05, 0., 0. ]
      - [ 6.23864472e-01, 7.96263456e-01, 8.06921899e-01, 7.73912787e-01,
          0., 1.73923123e-04, 1.73923123e-04, 4.63795004e-04,
          5.10174502e-03, 8.50136220e-01, 1., 1.38094962e-01,
          2.61464436e-02, 6.02933485e-03, 1.39138498e-03, 0., 0., 0., 0. ]
      - [ 2.97448367e-01, 3.78306299e-01, 4.45728451e-01, 4.26086962e-01,
          0., 0., 2.04345764e-04, 3.40576255e-04, 8.99121352e-03,
          2.80226141e-01, 1., 1.14501737e-01, 4.70676385e-02,
          3.19460519e-02, 1.15114776e-02, 3.61010828e-03, 0., 0., 0. ]
      - [ 5.70076406e-01, 6.94519460e-01, 7.22387433e-01, 7.39130437e-01,
          6.00925414e-05, 0., 1.20185083e-04, 3.60555248e-04,
          1.02157320e-03, 1.56000242e-01, 1., 4.24734086e-01,
          2.01790750e-01, 6.26765192e-02, 2.10924819e-02, 2.68012732e-02,
          6.48999447e-03, 2.76425690e-03, 2.40370166e-03 ]
      - [ 5.40000737e-01, 6.84184372e-01, 6.68592393e-01, 7.47825801e-01,
          0., 0., 0., 0., 3.70676033e-02, 3.41035694e-01, 1.,
          6.65084958e-01, 1.17736064e-01, 1.51296344e-03, 0., 0., 0., 0.,
          0. ]
      - [ 5.10708630e-01, 6.41353488e-01, 6.99332535e-01, 6.52173936e-01,
          0., 0., 0., 0., 1.59906180e-04, 1.87410042e-01, 9.99999940e-01,
          3.67251188e-01, 4.01897542e-02, 1.10868290e-02, 2.71840510e-03,
          1.75896799e-03, 6.39624719e-04, 1.06604122e-04, 5.33020611e-05 ]
      - [ 5.01250684e-01, 6.32078469e-01, 6.30167782e-01, 6.86956525e-01,
          0., 0., 0., 0., 9.24499240e-04, 5.36825918e-02, 1.,
          7.01140225e-01, 6.93990737e-02, 6.59476127e-03, 2.15716497e-03,
          1.84899851e-04, 1.84899851e-04, 6.16332836e-05, 6.16332836e-05 ]
      - [ 5.44013560e-01, 6.76714659e-01, 6.22482598e-01, 7.99999714e-01,
          0., 0., 0., 0., 0., 1.22629628e-01, 9.99999940e-01,
          1.82832688e-01, 8.39066878e-03, 1.17469369e-03, 1.25860039e-04,
          0., 0., 0., 0. ]
      - [ 6.72112048e-01, 6.16675198e-01, 6.99332535e-01, 6.60869539e-01,
          0., 0., 4.62149910e-05, 0., 1.38644973e-04, 4.62149910e-04,
          1.99648757e-02, 1., 3.11581463e-01, 2.54182443e-02,
          2.12588953e-03, 2.31074955e-04, 4.62149910e-05, 0.,
          4.62149910e-05 ]
      - [ 5.10384202e-01, 6.40657842e-01, 6.99332535e-01, 6.26086950e-01,
          0., 4.26839688e-05, 0., 4.26839688e-05, 2.13419844e-04,
          3.50008532e-02, 1., 2.29298279e-01, 1.50674414e-02,
          5.71965193e-03, 1.19515113e-03, 0., 0., 0., 0. ]
      - [ 6.69627011e-01, 8.62497330e-01, 8.68401647e-01, 8.34782362e-01,
          4.07099833e-05, 0., 4.07099833e-05, 0., 2.44259892e-04,
          3.43592241e-02, 1., 3.73147696e-01, 8.40254053e-02,
          9.03761666e-03, 2.97182868e-03, 1.46555935e-03, 4.07099840e-04,
          8.14199666e-05, 4.07099833e-05 ]
      - [ 6.06610358e-01, 7.32348382e-01, 8.45346987e-01, 6.69565201e-01,
          9.63855418e-05, 4.81927709e-05, 2.40963855e-04, 8.19277135e-04,
          2.35180724e-02, 3.32915664e-01, 1., 1.97349399e-01,
          2.95421686e-02, 3.46987951e-03, 1.15662650e-03, 1.92771084e-04,
          4.81927709e-05, 0., 4.81927709e-05 ]
      - [ 5.77088892e-01, 7.32861876e-01, 7.14702487e-01, 7.73913026e-01,
          0., 0., 0., 0., 0., 1.16469674e-02, 1., 3.21413159e-01,
          7.71288052e-02, 1.29842116e-02, 1.33724441e-03, 0., 0., 0., 0. ]
      - [ 4.92441654e-01, 6.14157736e-01, 6.37852728e-01, 6.86956525e-01,
          9.85998850e-05, 4.92999425e-05, 1.03529880e-03, 2.53697515e-01,
          1., 8.85426998e-02, 1.65154804e-02, 1.58745814e-02,
          2.35653725e-02, 3.02701648e-02, 9.02188942e-03, 7.69079104e-03,
          1.57759816e-03, 3.45099601e-04, 4.92999425e-05 ]
      - [ 3.36198568e-01, 4.14214015e-01, 4.45728242e-01, 5.30434489e-01,
          0., 0., 0., 2.34233141e-02, 1., 2.70669401e-01, 6.39753044e-02,
          3.20784412e-02, 7.86829647e-03, 1.75523537e-03, 0., 0., 0., 0.,
          0. ]
      - [ 6.28985226e-01, 8.01149428e-01, 8.22292089e-01, 7.73913026e-01,
          7.02123943e-05, 0., 0., 0., 1.40424789e-04, 5.47656696e-03, 1.,
          1.92136213e-01, 2.52413563e-02, 2.42232764e-03, 1.29892933e-03,
          3.86168162e-04, 3.51061972e-05, 3.51061972e-05, 3.51061972e-05 ]
      - [ 3.53682041e-01, 4.37799156e-01, 4.91838306e-01, 5.21739125e-01,
          1.08009309e-03, 0., 2.16018618e-03, 3.10734455e-02, 1.,
          7.55815864e-01, 9.85377207e-02, 3.53107341e-02, 2.58391481e-02,
          1.76969096e-02, 3.90495174e-03, 1.41242938e-03, 9.97008989e-04,
          0., 7.47756741e-04 ]
      - [ 2.79640436e-01, 3.33487928e-01, 3.99618626e-01, 4.08695638e-01,
          1.78826903e-03, 1.54983310e-03, 7.74916587e-03, 4.38722000e-02,
          8.10443521e-01, 1., 2.77300924e-01, 1.40796378e-01,
          9.19170231e-02, 9.65665281e-03, 2.32474972e-02, 3.40963304e-02,
          1.14449216e-02, 7.15307600e-04, 4.53028129e-03 ]
      - [ 5.29434741e-01, 6.66893005e-01, 6.37852728e-01, 7.21739113e-01,
          0., 0., 0., 0., 0., 7.30220127e-05, 2.40607522e-02,
          9.99999940e-01, 1.00478292e-01, 1.38741825e-03, 5.11154067e-04,
          1.46044025e-04, 7.30220127e-05, 0., 1.09533023e-04 ]
      - [ 5.38663268e-01, 6.75588369e-01, 6.45537734e-01, 7.73913026e-01,
          0., 0., 5.65003684e-05, 0., 0., 0., 7.07215130e-01, 1.,
          4.89858203e-02, 6.72354363e-03, 4.52002947e-04, 5.65003684e-05,
          5.65003684e-05, 0., 0. ]
      - [ 4.38883245e-01, 5.52014828e-01, 5.91742933e-01, 5.91304362e-01,
          0., 0., 0., 1.14727370e-03, 5.28470516e-01, 1., 3.75581197e-02,
          5.10838702e-02, 2.59646159e-02, 1.78733170e-02, 1.93225045e-03,
          1.20765653e-04, 0., 0., 0. ]
      - [ 6.20635211e-01, 7.92039990e-01, 7.68497288e-01, 8.08695674e-01,
          0., 0., 0., 0., 0., 1.01377882e-01, 1., 6.28614277e-02,
          3.38045247e-02, 3.42328846e-02, 1.03876637e-02, 1.10658957e-03,
          3.56964374e-05, 0., 0. ]
      - [ 5.87464809e-01, 6.68996453e-01, 6.68592632e-01, 7.39130437e-01,
          0., 0., 0., 0., 9.89772379e-04, 3.52193974e-02, 7.74249375e-01,
          9.99999940e-01, 5.38848519e-01, 1.69580996e-01, 2.64764093e-02,
          8.24810285e-03, 0., 0., 0. ]
      - [ 2.39133120e-01, 2.64223129e-01, 2.76658863e-01, 3.73912781e-01,
          0., 0., 0., 0., 2.74823625e-02, 1., 8.12151194e-01,
          8.58165696e-02, 1.03190476e-02, 2.10592814e-04, 0., 0., 0., 0.,
          0. ]
      - [ 4.55812603e-01, 5.67401469e-01, 5.53317845e-01, 6.69564962e-01,
          0., 0., 0., 1.67120378e-02, 7.89549291e-01, 1., 2.08182082e-01,
          6.76799715e-02, 1.43678160e-02, 3.70538398e-03, 0., 0., 0., 0.,
          0. ]
      - [ 3.66828322e-01, 4.58485842e-01, 4.84153330e-01, 5.47826111e-01,
          0., 0., 0., 0., 0., 9.55794530e-04, 8.57347667e-01, 1.,
          6.92154542e-02, 2.07088813e-02, 2.15053768e-03, 1.59299088e-04,
          0., 0., 0. ]
      - [ 2.45093107e-01, 3.24030668e-01, 4.45728451e-01, 3.39130431e-01,
          0., 3.64033505e-04, 8.19075387e-04, 1.54714240e-03,
          1.40152900e-02, 1., 7.08136201e-01, 8.91882107e-02,
          2.96687298e-02, 5.09646907e-03, 2.73025129e-04, 0., 0., 0., 0. ]
      - [ 6.27093613e-01, 7.82433689e-01, 7.83867240e-01, 8.08695674e-01,
          2.37891334e-04, 0., 4.75782654e-05, 4.75782654e-05,
          3.71110463e-03, 3.60215038e-01, 1., 2.13293359e-01,
          5.27642965e-02, 1.00390138e-02, 1.33219140e-03, 6.66095701e-04,
          1.90313061e-04, 2.37891334e-04, 1.42734789e-04 ]
      - [ 4.57838714e-01, 5.47625780e-01, 5.91742933e-01, 5.73913038e-01,
          1.70896354e-04, 0., 1.29881231e-02, 2.63693064e-01, 1.,
          7.79970944e-01, 5.73357269e-02, 1.47910789e-01, 3.74263003e-02,
          1.37571562e-02, 7.09219882e-03, 3.93061619e-03, 6.83585415e-04,
          4.27240884e-04, 0. ]
      - [ 2.53672481e-01, 3.27823520e-01, 3.91933650e-01, 4.08695638e-01,
          3.04352230e-04, 1.01450738e-03, 2.13046558e-03, 3.55077605e-03,
          2.90149134e-02, 1., 8.43360007e-01, 1.29654050e-01,
          2.96236165e-02, 1.97828952e-02, 1.08552296e-02, 1.11595821e-03,
          0., 0., 0. ]
      - [ 6.91906631e-01, 8.94015908e-01, 7.83867240e-01, 9.65217412e-01,
          0., 3.55580851e-05, 3.55580851e-05, 2.13348510e-04,
          2.13348510e-04, 3.55580851e-04, 2.49013275e-01, 1.,
          7.40674883e-02, 1.73167866e-02, 2.27571744e-03, 3.20022751e-04,
          0., 0., 0. ]
      - [ 5.36122501e-01, 6.26165569e-01, 6.83962584e-01, 6.69565201e-01,
          0., 0., 0., 4.95785825e-05, 7.43678713e-04, 2.16410518e-01, 1.,
          2.25086764e-01, 1.57659892e-02, 2.47892924e-03, 1.14030740e-03,
          3.96628660e-04, 0., 4.95785825e-05, 9.91571651e-05 ]
      - [ 6.12514794e-01, 7.72910237e-01, 8.29977036e-01, 6.95652187e-01,
          0., 0., 0., 0., 2.56147527e-04, 3.08760256e-01, 1.,
          2.98360646e-01, 1.00153692e-01, 2.88422126e-02, 7.83811510e-03,
          5.89139340e-03, 1.53688525e-04, 0., 0. ]
      - [ 4.68175352e-01, 5.88949442e-01, 6.14797831e-01, 6.26086950e-01,
          0., 0., 0., 0., 1.44341169e-02, 3.65992337e-01, 1.,
          7.67632574e-02, 4.49425913e-02, 4.10060138e-02, 1.18097318e-02,
          9.29469650e-04, 0., 0., 0. ]
      - [ 5.87330461e-01, 7.50219464e-01, 7.45442331e-01, 7.73913026e-01,
          2.98775034e-04, 0., 0., 0., 2.98775034e-04, 1.38631612e-02, 1.,
          5.00089645e-01, 1.77472368e-01, 1.01523757e-01, 6.46549165e-02,
          1.23274580e-01, 9.20227077e-03, 2.56946520e-03, 1.97191513e-03 ]
      - [ 4.28412110e-01, 5.36926329e-01, 5.84057927e-01, 5.82608700e-01,
          0., 0., 6.51198113e-03, 6.60049319e-02, 4.32193220e-01, 1.,
          5.62685728e-02, 3.15483361e-02, 5.02623767e-02, 4.10318039e-02,
          1.16962763e-02, 4.04627947e-03, 1.26446233e-04, 0., 0. ]
      - [ 3.45886052e-01, 4.33476329e-01, 4.68783379e-01, 5.30434787e-01,
          4.06669395e-04, 1.74286880e-03, 5.51908463e-03, 9.23139527e-02,
          1., 2.09899500e-01, 2.07401384e-02, 1.46400975e-02,
          1.30134206e-02, 7.49433553e-03, 4.12478950e-03, 2.96287681e-03,
          2.90478114e-04, 5.80956257e-05, 5.80956257e-05 ]
      - [ 4.08807606e-01, 5.13556480e-01, 5.76372981e-01, 5.56521714e-01,
          0., 0., 1.09995529e-01, 3.45078975e-01, 1., 5.95382750e-02,
          2.53885016e-02, 7.16249943e-02, 5.02653979e-02, 1.76504441e-02,
          5.75557991e-04, 0., 0., 0., 0. ]
      - [ 7.02931762e-01, 9.17501688e-01, 8.60716939e-01, 9.04347837e-01,
          0., 0., 0., 3.65390224e-05, 3.17889499e-03, 2.77952343e-01,
          9.99999940e-01, 9.34668183e-02, 2.15580240e-02, 1.14001753e-02,
          3.21543403e-03, 9.50014568e-04, 1.82695105e-04, 0., 0. ]
      - [ 5.97801447e-01, 7.58318543e-01, 7.37757385e-01, 8.00000012e-01,
          1.07834152e-04, 0., 0., 3.98986368e-03, 4.59373482e-02,
          3.99849027e-01, 1., 2.45969698e-01, 5.36474921e-02,
          3.33207548e-02, 1.49350297e-02, 1.24009270e-02, 2.96543911e-03,
          2.04884890e-03, 1.61751232e-04 ]
      - [ 3.63923639e-01, 4.52970505e-01, 4.45728451e-01, 6.08695626e-01,
          1.65123120e-03, 3.15887714e-03, 1.01227649e-02, 4.32837933e-01,
          9.99999940e-01, 2.06260309e-01, 3.23066972e-02, 2.29736511e-02,
          1.97429806e-02, 1.17739961e-02, 3.08708427e-03, 5.02548646e-04,
          2.87170638e-04, 7.17926596e-05, 0. ]
      - [ 4.52353954e-01, 5.69786489e-01, 6.37852728e-01, 5.82608700e-01,
          7.79058901e-05, 0., 3.89529450e-04, 1.40230602e-03, 1.,
          9.73200381e-01, 7.30757266e-02, 1.16001867e-01, 1.14521654e-02,
          5.45341230e-04, 6.23247121e-04, 0., 0., 0., 0. ]
      - [ 2.60035813e-01, 3.38208258e-01, 4.30358291e-01, 3.39130163e-01,
          0., 0., 0., 0., 0., 0., 4.12776232e-01, 9.99999940e-01,
          1.73342526e-02, 2.34806631e-03, 4.14364622e-04, 0., 0., 0., 0. ]
      - [ 3.87540907e-01, 4.84836936e-01, 4.91838306e-01, 5.91304362e-01,
          1.66315556e-04, 5.54385188e-05, 1.66315556e-04, 1.10877038e-04,
          1.44140143e-03, 1.17585100e-01, 1., 2.31566697e-01,
          2.06785668e-02, 1.74631327e-02, 7.70595390e-03, 1.71859411e-03,
          4.98946640e-04, 0., 1.66315556e-04 ]
      - [ 2.62061924e-01, 3.06242436e-01, 3.45823824e-01, 3.82608682e-01,
          0., 0., 0., 0., 4.26181108e-02, 1., 7.39468515e-01,
          1.05314963e-01, 4.61614169e-02, 4.33070865e-03, 0., 0., 0., 0.,
          0. ]
      - [ 6.65843785e-01, 8.61636043e-01, 8.14607084e-01, 8.78260851e-01,
          0., 0., 0., 0., 4.27336403e-04, 8.97735134e-02, 1.,
          5.37457690e-02, 2.79083550e-02, 3.11955567e-02, 7.69205531e-03,
          1.77508965e-03, 9.53288865e-04, 2.95848266e-04, 1.31488123e-04 ]
      - [ 3.50587279e-01, 3.93328577e-01, 4.76468354e-01, 4.69565213e-01,
          9.61538462e-05, 0., 1.92307692e-04, 6.25000009e-03,
          7.90384591e-01, 1., 1.71153843e-01, 1.07307695e-01,
          5.75961545e-02, 1.25961537e-02, 9.51923057e-03, 4.90384595e-03,
          1.53846154e-03, 5.76923077e-04, 1.92307692e-04 ]
      - [ 1., 4.92190748e-01, 5.68687797e-01, 6.95651889e-01,
          1.58015333e-04, 0., 7.90076665e-05, 0., 1.10610737e-03,
          2.03049704e-02, 6.40831172e-01, 1., 3.00861180e-01,
          6.61294162e-02, 7.58473575e-03, 2.37022992e-04, 2.37022992e-04,
          0., 7.90076665e-05 ]
      - [ 5.65280259e-01, 7.20108628e-01, 7.60812283e-01, 7.04347849e-01,
          6.94323899e-05, 1.04148581e-04, 6.94323899e-05, 2.43013361e-04,
          3.47161957e-04, 2.76340917e-02, 1., 9.41503197e-02,
          7.32511701e-03, 1.14563445e-03, 6.94323913e-04, 3.47161949e-05,
          3.47161949e-05, 6.94323899e-05, 0. ]
      - [ 3.43440443e-01, 4.26635981e-01, 4.30358529e-01, 5.56521714e-01,
          1.04695595e-04, 2.09391190e-04, 3.14086792e-04, 1.18306018e-02,
          1., 1.45998001e-01, 2.93147657e-02, 3.16704176e-02,
          9.10851639e-03, 1.25634717e-03, 0., 0., 0., 0., 0. ]
      - [ 4.86766815e-01, 5.82721889e-01, 6.14797831e-01, 6.86956525e-01,
          2.32839724e-04, 2.79407657e-04, 4.65679448e-04, 1.53674220e-03,
          1.43568978e-01, 1., 6.55210987e-02, 8.35894570e-02,
          1.58331003e-02, 6.37980830e-03, 1.90928567e-03, 0., 0., 0., 0. ]
      - [ 4.05578375e-01, 5.00753582e-01, 4.91838306e-01, 6.43478274e-01,
          6.66622218e-05, 6.66622218e-05, 1.99986665e-04, 8.66608869e-04,
          2.73315120e-03, 5.30964613e-01, 1., 1.41457230e-01,
          3.13979052e-02, 9.99933295e-03, 1.86654227e-03, 2.66648887e-04,
          3.99973331e-04, 0., 0. ]
      - [ 4.80862558e-01, 6.03806078e-01, 6.30167782e-01, 6.60869539e-01,
          9.51655893e-05, 0., 2.37913977e-04, 1.47078425e-01, 1.,
          1.37609437e-01, 1.69394743e-02, 1.96992774e-02, 2.86924243e-02,
          1.78911313e-02, 3.52112669e-03, 5.18652471e-03, 2.33155699e-03,
          1.09440426e-03, 0. ]
      - [ 7.25670457e-01, 8.70082974e-01, 8.53031933e-01, 8.78260851e-01,
          2.88406067e-04, 1.92270716e-04, 9.61353580e-05, 9.61353580e-05,
          5.76812134e-04, 1.91309363e-01, 1., 3.73005182e-01,
          1.24351084e-01, 3.01384348e-02, 2.11497787e-02, 2.21592002e-02,
          5.52778319e-03, 4.61449707e-03, 4.18188795e-03 ]
      - [ 5.58267772e-01, 7.08100796e-01, 7.45442331e-01, 6.95652187e-01,
          9.72999260e-05, 9.72999260e-05, 9.72999260e-05, 2.43249815e-04,
          4.37849667e-04, 1.50814885e-03, 1., 5.01824379e-01,
          5.28825112e-02, 6.08124537e-03, 2.09194841e-03, 1.45949889e-04,
          4.86499630e-05, 0., 0. ]
      - [ 5.29529750e-01, 6.66975856e-01, 6.60907686e-01, 7.39130437e-01,
          0., 0., 3.97946606e-05, 0., 1.98973299e-04, 8.67921561e-02, 1.,
          9.84121934e-02, 3.95160988e-02, 6.96406560e-03, 7.16303883e-04,
          0., 0., 0., 0. ]
      - [ 6.88123405e-01, 8.93651545e-01, 8.29977036e-01, 8.95652175e-01,
          0., 0., 1.00223835e-04, 1.67039718e-04, 1.60358136e-03,
          1.28754213e-01, 1., 1.15992382e-01, 1.55012868e-02,
          3.34079436e-04, 0., 0., 0., 0., 0. ]
      - [ 3.52019966e-01, 4.19762492e-01, 4.45728451e-01, 5.47826111e-01,
          4.45315265e-04, 1.33594580e-03, 1.15781976e-03, 3.53580341e-02,
          9.24741685e-01, 1., 7.89989308e-02, 1.24688279e-02,
          6.67972909e-03, 4.09690058e-03, 3.56252218e-04, 0., 0., 0., 0. ]
      - [ 6.10852718e-01, 7.62227356e-01, 6.99332535e-01, 8.17391276e-01,
          9.53502720e-04, 1.23394467e-03, 2.01918231e-03, 3.58965737e-03,
          6.84839338e-02, 1., 3.88243884e-01, 1.71406135e-01,
          8.72174576e-02, 2.61371918e-02, 3.86449061e-02, 4.80677560e-02,
          1.11615909e-02, 7.01104943e-03, 9.70329251e-03 ]
      - [ 3.05798352e-01, 3.90695125e-01, 4.99523252e-01, 3.91304344e-01,
          0., 0., 0., 1.26823084e-04, 3.85542177e-02, 1., 2.54914403e-01,
          8.17374811e-02, 3.73493992e-02, 3.29740020e-03, 0., 0., 0., 0.,
          0. ]
      - [ 3.36198568e-01, 4.20607179e-01, 4.45728451e-01, 5.30434787e-01,
          0., 0., 0., 1.35186166e-02, 1., 6.01993799e-01, 5.33192381e-02,
          5.74730039e-02, 2.74903718e-02, 6.72154687e-03, 0., 0., 0., 0.,
          0. ]
      - [ 7.13022530e-01, 4.25244719e-01, 5.45633078e-01, 5.47826111e-01,
          1.72622124e-04, 8.63110618e-05, 0., 0., 1.72622124e-04,
          6.04177418e-04, 2.05420330e-02, 9.99999940e-01, 7.33902931e-01,
          2.62817174e-01, 8.71741679e-03, 4.31555323e-04, 8.63110618e-05,
          0., 8.63110618e-05 ]
      - [ 3.91458482e-01, 3.81585717e-01, 5.53318083e-01, 4.69565213e-01,
          0., 0., 7.49676256e-04, 6.22912832e-02, 1., 3.75587821e-01,
          2.97144409e-02, 1.71062499e-02, 1.26081919e-02, 6.33817213e-03,
          5.45219111e-04, 0., 0., 0., 0. ]
      - [ 6.87339902e-01, 8.87788415e-01, 7.91552186e-01, 9.47826087e-01,
          5.48365861e-05, 1.09673172e-04, 1.09673172e-04, 8.22548813e-04,
          5.26431203e-03, 9.26847994e-01, 1., 7.78131187e-02,
          3.88243012e-02, 1.11318268e-02, 3.29019525e-03, 7.67712190e-04,
          1.64509751e-04, 5.48365861e-05, 0. ]
      - [ 5.91343105e-01, 7.49242246e-01, 7.30072200e-01, 7.91304111e-01,
          9.87959211e-04, 0., 0., 1.85242359e-04, 1.04970671e-03,
          6.97746174e-03, 9.99999940e-01, 5.49243569e-01, 2.37480700e-01,
          1.12071626e-01, 5.56344539e-02, 6.35998771e-02, 1.97591837e-02,
          6.60697743e-03, 7.03920936e-03 ]
      - [ 6.35712385e-01, 4.38329160e-01, 4.99523252e-01, 7.04347849e-01,
          0., 0., 7.21084507e-05, 6.48976071e-04, 4.14046735e-01, 1.,
          6.81424886e-02, 2.11133540e-01, 3.25209126e-02, 1.01672914e-02,
          5.98500157e-03, 2.16325349e-03, 2.16325352e-04, 0., 0. ]
      - [ 5.69522440e-01, 6.89600348e-01, 7.30072439e-01, 7.21739113e-01,
          5.61167253e-04, 0., 0., 0., 1.40291813e-04, 9.14702639e-02, 1.,
          5.96240222e-01, 2.82337278e-01, 1.23526938e-01, 3.82996649e-02,
          6.69893399e-02, 1.31874308e-02, 4.06846264e-03, 5.68181835e-03 ]
      - [ 2.25068912e-01, 2.98093647e-01, 4.14988339e-01, 2.69564956e-01,
          0., 0., 3.26548383e-04, 2.05725487e-02, 5.49254358e-01, 1.,
          4.92761523e-01, 4.07096967e-02, 1.12114949e-02, 2.83008604e-03,
          0., 0., 0., 0., 0. ]
      - [ 2.93989718e-01, 3.74861300e-01, 4.53413188e-01, 4.26086694e-01,
          0., 0., 1.74520072e-04, 0., 2.09424086e-02, 6.34816766e-01, 1.,
          1.33595109e-01, 7.28621334e-02, 4.14485186e-02, 7.76614342e-03,
          6.02094270e-03, 1.74520072e-03, 8.72600358e-05, 0. ]
      - [ 6.93244278e-01, 8.82372439e-01, 8.37662041e-01, 9.04347837e-01,
          6.98254327e-04, 0., 0., 0., 1.49625936e-04, 4.64837886e-02, 1.,
          5.34613431e-01, 1.50423944e-01, 5.95012456e-02, 2.77306736e-02,
          3.46134640e-02, 4.18952620e-03, 1.74563588e-03, 2.89276801e-03 ]
      - [ 6.84340179e-01, 8.85304034e-01, 8.29977036e-01, 8.78260851e-01,
          0., 0., 0., 0., 0., 4.15643193e-02, 1., 1.46767944e-01,
          2.55979337e-02, 1.61603116e-03, 3.23206223e-05, 0., 0., 0., 0. ]
      - [ 2.92462111e-01, 2.57482141e-01, 2.99713999e-01, 5.13043463e-01,
          9.92260393e-05, 0., 0., 1.38916459e-03, 3.84500891e-01, 1.,
          7.94800594e-02, 2.60964483e-01, 5.52689023e-02, 1.95475295e-02,
          6.64814468e-03, 9.92260408e-04, 9.92260393e-05, 9.92260393e-05,
          0. ]
      - [ 4.44328576e-01, 5.59915185e-01, 6.22482836e-01, 6.00000024e-01,
          0., 0., 0., 0., 3.04404902e-03, 4.21869397e-01, 1.,
          1.83299512e-01, 3.40814143e-02, 5.07341512e-03, 2.38748951e-04,
          0., 0., 0., 0. ]
      - [ 5.70076406e-01, 7.15057075e-01, 7.07017481e-01, 7.56521761e-01,
          0., 0., 0., 0., 4.56475100e-05, 2.40699321e-01, 1.,
          1.02296069e-01, 8.63194391e-02, 3.78874317e-02, 8.90126452e-03,
          2.37367046e-03, 3.19532584e-04, 2.28237550e-04, 3.19532584e-04 ]
      - [ 4.01241153e-01, 5.01399517e-01, 5.68688035e-01, 5.30434787e-01,
          0., 0., 0., 3.00842361e-03, 1., 7.47668505e-01, 4.90373075e-02,
          8.81468132e-02, 5.24217822e-02, 3.08363419e-03, 0., 0., 0., 0.,
          0. ]
      - [ 6.17960095e-01, 7.82864332e-01, 7.76182234e-01, 8.00000012e-01,
          0., 0., 1.03896105e-04, 0., 2.59740278e-04, 3.01298704e-02, 1.,
          6.50337696e-01, 7.57402629e-02, 3.03896107e-02, 2.80519482e-03,
          2.59740278e-04, 1.55844158e-04, 0., 5.19480527e-05 ]
      - [ 5.56146741e-01, 7.00465381e-01, 6.91647530e-01, 7.65217364e-01,
          2.32482445e-04, 0., 0., 5.11461403e-04, 2.23183166e-03,
          1.67852327e-01, 1., 2.37969041e-01, 4.37531993e-02,
          2.03189664e-02, 7.99739640e-03, 3.85920866e-03, 1.20890874e-03,
          3.71971924e-04, 9.29929782e-04 ]
      - [ 5.29434741e-01, 5.87491930e-01, 6.83962584e-01, 6.34782612e-01,
          1.02056438e-04, 0., 5.10282189e-05, 5.10282189e-05,
          3.57197539e-04, 2.24269018e-01, 1., 1.99418277e-01,
          2.57692505e-02, 3.36786243e-03, 7.14395079e-04, 2.55141087e-04,
          5.10282189e-05, 5.10282189e-05, 0. ]
      - [ 4.03132766e-01, 5.04115820e-01, 5.61003029e-01, 5.47826111e-01,
          0., 4.08563501e-04, 2.39990205e-01, 4.45089072e-01, 1.,
          2.28877276e-01, 3.98757979e-02, 1.16685733e-01, 3.78329791e-02,
          8.90668388e-03, 4.90276201e-04, 8.17127002e-05, 0., 0., 0. ]
      - [ 3.38319719e-01, 4.11249310e-01, 4.22673553e-01, 5.47826111e-01,
          0., 0., 0., 1.42462831e-03, 1., 8.47920954e-01, 1.07025199e-01,
          5.41358739e-02, 2.73350552e-02, 9.61624086e-03, 8.90392694e-05,
          0., 0., 0., 0. ]
      - [ 4.14941400e-01, 5.17995238e-01, 5.61003029e-01, 5.65217376e-01,
          0., 0., 4.49812599e-03, 1.49104536e-01, 1., 8.13910902e-01,
          4.56476472e-02, 1.37859225e-01, 3.92336547e-02, 4.91461903e-03,
          0., 0., 0., 0., 0. ]
      - [ 7.29492962e-01, 3.85345399e-01, 4.74607259e-01, 6.73272014e-01,
          0., 0., 0., 0., 0., 7.23588979e-04, 5.54751558e-03,
          5.15034556e-01, 1., 2.73195058e-01, 7.63788400e-03,
          8.03987787e-05, 8.03987787e-05, 0., 0. ]
      - [ 3.21160823e-01, 4.12342459e-01, 5.14892995e-01, 4.26086694e-01,
          0., 0., 0., 1.70309388e-04, 1.64632406e-03, 1.59750208e-01, 1.,
          1.19784273e-01, 2.39568539e-02, 2.83848983e-03, 7.94777181e-04,
          5.67697971e-05, 5.67697971e-05, 0., 5.67697971e-05 ]
      - [ 6.09285533e-01, 7.69150496e-01, 8.29977036e-01, 6.86956525e-01,
          0., 0., 0., 0., 2.41913181e-03, 9.01575923e-01, 1.,
          2.92092890e-01, 1.11833014e-01, 3.70472781e-02, 7.46474974e-03,
          2.90295831e-03, 2.76472216e-04, 2.76472216e-04, 6.91180539e-05 ]
      - [ 6.85258150e-01, 5.45969486e-01, 5.76372743e-01, 7.13043213e-01,
          0., 0., 0., 2.91743665e-04, 2.91743665e-04, 7.97432661e-03,
          3.58941942e-01, 1., 7.31401384e-01, 4.79237586e-01,
          6.91432506e-02, 7.77983107e-04, 9.72478883e-05, 0., 0. ]
      - [ 6.65978134e-01, 8.01447570e-01, 7.53127337e-01, 8.17391276e-01,
          1.06336700e-03, 4.83348631e-05, 4.83348631e-05, 6.76688098e-04,
          4.91082221e-02, 1., 3.98327619e-01, 1.12475224e-01,
          4.05529514e-02, 1.15036974e-02, 2.45057754e-02, 1.81255732e-02,
          7.54023856e-03, 3.91512411e-03, 5.51017420e-03 ]
      - [ 7.07728028e-01, 9.21857655e-01, 8.53031933e-01, 9.04347837e-01,
          3.41005980e-05, 0., 0., 0., 1.02301798e-04, 1.72787726e-01, 1.,
          9.07075927e-02, 3.16112526e-02, 1.35038365e-02, 4.05797129e-03,
          2.86445022e-03, 2.11423705e-03, 2.01193523e-03, 3.41005973e-04 ]
      - [ 3.72273624e-01, 4.69201863e-01, 5.61003029e-01, 5.04347801e-01,
          1.06185296e-04, 2.12370593e-04, 5.84019115e-04, 4.76241037e-02,
          1., 1.86939210e-01, 3.30236256e-02, 2.33076718e-02,
          2.22458187e-02, 7.37987831e-03, 2.44226190e-03, 9.55667696e-04,
          1.06185296e-04, 0., 0. ]
      - [ 5.51809371e-01, 6.89616919e-01, 6.60907686e-01, 7.73913026e-01,
          0., 0., 0., 0., 0., 9.90603399e-03, 1., 6.68742239e-01,
          9.71357375e-02, 1.18872412e-02, 5.66059098e-05, 0., 0., 0., 0. ]
      - [ 1.44759044e-01, 2.17235044e-01, 2.76659101e-01, 2.78260857e-01,
          0., 7.68462342e-05, 2.68961815e-03, 1.36171520e-01, 1.,
          8.45308602e-02, 1.81357116e-02, 1.52155543e-02, 2.07484830e-02,
          1.97494831e-02, 6.76246872e-03, 4.68762033e-03, 6.91616093e-04,
          1.53692468e-04, 0. ]
      - [ 2.92098105e-01, 3.67739379e-01, 4.14988577e-01, 4.60869551e-01,
          0., 0., 0., 2.78189895e-04, 7.60942161e-01, 1., 2.00853109e-01,
          4.02448066e-02, 5.74925821e-03, 0., 0., 0., 0., 0., 0. ]
      - [ 5.87235272e-01, 6.96407557e-01, 7.76181996e-01, 6.95651889e-01,
          0., 0., 0., 0., 3.06873990e-04, 1.19987726e-01, 1.,
          7.39873171e-01, 4.46501642e-01, 2.99815893e-01, 1.30114570e-01,
          2.87234038e-01, 9.07324106e-02, 3.03805247e-02, 3.53927985e-02 ]
      - [ 5.67955375e-01, 7.13814855e-01, 6.76277399e-01, 7.99999714e-01,
          5.24383831e-05, 0., 3.14630306e-04, 2.62191927e-04,
          1.44729940e-02, 5.49134731e-01, 9.99999940e-01, 9.20293629e-02,
          1.78290494e-02, 1.45254321e-02, 6.29260577e-03, 9.96329240e-04,
          1.04876766e-04, 5.24383831e-05, 5.24383831e-05 ]
      - [ 6.11272156e-01, 7.78044641e-01, 7.30072439e-01, 8.52173924e-01,
          2.05829070e-04, 0., 0., 0., 8.23316295e-05, 7.99028501e-02, 1.,
          2.75728613e-01, 4.39239256e-02, 8.80948454e-03, 1.56430097e-03,
          4.93989792e-04, 1.23497448e-04, 0., 0. ]
      - [ 4.77079332e-01, 5.99698544e-01, 6.37852490e-01, 6.34782314e-01,
          0., 0., 0., 5.58846550e-05, 4.47077240e-04, 1.48820832e-01, 1.,
          3.43020022e-01, 7.31530115e-02, 3.25807557e-02, 1.07298540e-02,
          6.70615875e-04, 0., 0., 0. ]
      - [ 4.70296383e-01, 5.82870960e-01, 6.14797831e-01, 6.17391288e-01,
          1.82060932e-04, 1.21373952e-04, 5.46182797e-04, 1.27442647e-03,
          3.48039806e-01, 1., 2.32916608e-01, 7.22175017e-02,
          5.24942353e-02, 8.37480277e-03, 1.82060932e-03, 4.85495810e-04,
          3.03434877e-04, 6.06869762e-05, 1.21373952e-04 ]
      - [ 5.30637860e-01, 6.70917749e-01, 6.76277399e-01, 7.39130199e-01,
          0., 0., 0., 0., 0., 3.79661005e-03, 9.74440634e-01, 1.,
          9.40338969e-02, 3.65423709e-02, 1.01694919e-03, 0., 0., 0., 0. ]
      - [ 3.42886478e-01, 4.31588173e-01, 4.76468354e-01, 4.95652169e-01,
          0., 0., 0., 0., 0., 5.12178463e-04, 2.85738677e-01, 1.,
          4.75756861e-02, 1.09833824e-02, 0., 0., 0., 0., 0. ]
      - [ 4.78416950e-01, 5.99582613e-01, 6.37852490e-01, 6.34782314e-01,
          0., 0., 0., 0., 3.58294521e-04, 2.91498184e-01, 1.,
          1.17725343e-01, 4.51962948e-02, 2.28796639e-02, 3.94123979e-03,
          2.04739728e-04, 0., 0., 0. ]
      - [ 5.93542993e-01, 5.79856575e-01, 5.99427879e-01, 6.60869539e-01,
          0., 0., 0., 3.81819829e-02, 1., 8.67789090e-01, 3.31033200e-01,
          1.51623875e-01, 1.23194404e-01, 3.77219617e-02, 1.06725544e-02,
          8.55644513e-03, 3.68019124e-03, 2.39212438e-03, 2.57613393e-03 ]
      - [ 6.83556676e-01, 8.80434632e-01, 7.68497288e-01, 9.56521749e-01,
          0., 0., 0., 3.35221739e-05, 2.34655221e-04, 1.18567929e-01,
          9.99999940e-01, 1.14679359e-01, 2.21916791e-02, 1.97780831e-03,
          4.02266101e-04, 1.34088696e-04, 0., 3.35221739e-05, 0. ]
      - [ 7.02187657e-01, 7.97836900e-01, 7.14702249e-01, 9.04347539e-01,
          0., 0., 0., 0., 0., 5.74154705e-02, 9.99999940e-01,
          3.66770357e-01, 2.02862471e-02, 1.03712920e-03, 0., 0., 0., 0.,
          0. ]
      - [ 6.87339902e-01, 8.79242122e-01, 8.45346987e-01, 8.86956513e-01,
          0., 0., 0., 7.08666994e-05, 1.06300053e-04, 8.13904032e-02, 1.,
          2.09411100e-01, 3.17837149e-02, 5.17326919e-03, 4.96066874e-04,
          1.06300053e-04, 3.54333497e-05, 0., 3.54333497e-05 ]
      - [ 5.52917480e-01, 6.81832492e-01, 7.22387433e-01, 7.21739113e-01,
          0., 0., 0., 0., 0., 4.93728518e-02, 1., 8.13933015e-01,
          2.92482227e-01, 1.66573450e-01, 5.32076359e-02, 8.36462379e-02,
          1.53391380e-02, 3.83478450e-03, 1.11847883e-02 ]
      - [ 2.09247589e-01, 2.82243252e-01, 3.15083712e-01, 3.65217119e-01,
          0., 6.82500686e-05, 1.36500137e-04, 4.77750495e-04,
          2.45700241e-03, 1.04354352e-01, 1., 1.66325420e-01,
          1.37182642e-02, 8.32650810e-03, 0., 0., 0., 0., 0. ]
      - [ 6.27323091e-01, 8.01530361e-01, 7.91552186e-01, 7.82608688e-01,
          0., 0., 0., 4.68230573e-05, 2.66891439e-03, 4.83213961e-01, 1.,
          1.31572798e-01, 2.06021443e-02, 1.40469172e-03, 1.49833784e-03,
          5.15053631e-04, 2.80938344e-04, 4.68230573e-05, 1.40469172e-04 ]
      - [ 7.18753159e-01, 9.25832689e-01, 7.91552186e-01, 1.,
          1.07296146e-04, 0., 0., 0., 3.93419177e-04, 1.15236059e-01, 1.,
          2.31473550e-01, 2.80758236e-02, 1.00500723e-02, 3.68383410e-03,
          7.86838355e-04, 7.15307615e-05, 0., 3.57653807e-05 ]
      - [ 5.81655622e-01, 7.30774939e-01, 7.91552186e-01, 6.95652187e-01,
          0., 0., 5.12058978e-05, 0., 2.56029482e-04, 2.61150068e-03, 1.,
          6.43658161e-01, 3.26181576e-02, 3.48200114e-03, 1.07532390e-03,
          1.02411796e-04, 0., 0., 0. ]
      - [ 3.50452930e-01, 4.39670742e-01, 4.84153330e-01, 5.21739125e-01,
          5.25520591e-04, 1.77363202e-03, 5.51796611e-03, 6.17486686e-02,
          1., 4.18314397e-01, 2.79182810e-02, 1.16271432e-02,
          1.47802662e-02, 1.41890561e-02, 4.13847482e-03, 1.97070232e-03,
          1.64225185e-03, 9.85351158e-04, 6.56900753e-04 ]
      - [ 1.64917663e-01, 2.29292616e-01, 3.07398975e-01, 2.86956519e-01,
          0., 0., 0., 6.83118415e-04, 1.73682854e-01, 9.99999940e-01,
          1.05627187e-01, 1.35599002e-01, 6.74579442e-02, 8.36820062e-03,
          7.68508238e-04, 0., 0., 0., 0. ]
      - [ 3.39657217e-01, 4.16499674e-01, 4.14988577e-01, 5.56521714e-01,
          4.00440476e-04, 5.50605648e-04, 7.50825915e-04, 3.40874940e-02,
          1., 7.31304437e-02, 2.69796774e-02, 2.21743919e-02,
          3.25357891e-03, 2.00220238e-04, 0., 0., 0., 0., 0. ]
      - [ 5.02358675e-01, 6.24559045e-01, 5.91742933e-01, 7.47826099e-01,
          1.58193323e-03, 2.01832852e-03, 1.93650443e-02, 1.,
          4.79216665e-01, 5.00218198e-02, 2.62928214e-02, 2.63473708e-02,
          1.04189394e-02, 1.25463668e-03, 0., 0., 0., 0., 0. ]
      - [ 5.28880596e-01, 6.17917418e-01, 6.83962584e-01, 6.60869539e-01,
          0., 0., 9.54927455e-05, 1.43239115e-04, 7.16195616e-04,
          1.22899160e-01, 1., 2.25506112e-01, 4.33059596e-02,
          5.10886172e-03, 1.28915207e-03, 9.07181064e-04, 9.54927455e-05,
          1.43239115e-04, 4.77463727e-05 ]
      - [ 5.20396292e-01, 6.57435775e-01, 6.91647530e-01, 6.86956525e-01,
          0., 5.24631432e-05, 0., 1.04926286e-04, 1.73128373e-03,
          4.83447880e-01, 1., 1.09280728e-01, 1.15418918e-02,
          1.04926282e-03, 1.04926286e-04, 0., 0., 0., 0. ]
      - [ 3.38873684e-01, 4.22197193e-01, 4.53413427e-01, 5.21739125e-01,
          0., 0., 4.16944647e-04, 8.25550407e-03, 7.85106778e-01, 1.,
          3.26050706e-02, 3.51901278e-02, 3.76917943e-02, 3.16044055e-02,
          1.26751168e-02, 2.25150096e-03, 8.33889280e-05, 0., 0. ]
      - [ 4.45705503e-01, 4.72265929e-01, 4.53413188e-01, 5.99999726e-01,
          1.42673700e-04, 0., 0., 9.51157999e-05, 9.51157999e-05,
          1.28406333e-03, 6.14923649e-02, 9.99999940e-01, 1.18561842e-01,
          3.94730549e-03, 5.70694800e-04, 1.42673700e-04, 9.51157999e-05,
          0., 0. ]
      - [ 3.38090181e-01, 4.28391606e-01, 4.76468354e-01, 5.04347801e-01,
          0., 0., 0., 0., 0., 0., 1.40897483e-01, 1., 7.97001272e-02,
          2.13207137e-02, 4.20034025e-03, 1.54189707e-03, 1.59506599e-04,
          0., 0. ]
      - [ 4.62175936e-01, 4.67479348e-01, 5.90300560e-01, 5.64883292e-01,
          0., 0., 5.23395793e-05, 5.23395793e-05, 0., 3.50675173e-03,
          2.25374222e-01, 1., 6.56861737e-02, 5.80969313e-03,
          2.45996029e-03, 5.23395778e-04, 1.04679159e-04, 0.,
          5.23395793e-05 ]
      - [ 5.62834501e-01, 7.11446404e-01, 6.91647530e-01, 7.65217364e-01,
          0., 0., 0., 0., 0., 1.67128481e-02, 1., 3.85099202e-01,
          1.42499013e-02, 8.79623549e-05, 0., 0., 0., 0., 0. ]
      - [ 3.56357187e-01, 4.44589823e-01, 4.53413427e-01, 5.65217376e-01,
          3.46596411e-04, 9.01150692e-04, 1.66366284e-03, 1.42104533e-02,
          1., 5.25440156e-01, 3.68085392e-02, 3.38278115e-02,
          3.20255086e-02, 1.98946353e-02, 3.39664496e-03, 1.10910856e-03,
          6.93192851e-05, 2.07957855e-04, 2.07957855e-04 ]
      - [ 5.21963298e-01, 6.53129518e-01, 6.99332535e-01, 6.60869539e-01,
          0., 0., 0., 0., 1.36547140e-03, 6.98408961e-01, 1.,
          8.97649005e-02, 1.50201852e-02, 3.44336266e-03, 1.66231301e-03,
          2.37473287e-04, 0., 0., 0. ]
      - [ 6.45590127e-01, 7.78872728e-01, 1., 5.79496682e-01, 0., 0., 0.,
          0., 3.98168428e-04, 1.81166641e-02, 6.81962967e-01, 1.,
          5.07764280e-01, 4.42763299e-01, 1.88035041e-01, 3.10869992e-01,
          7.43579566e-02, 1.96097959e-02, 3.10571380e-02 ]
      - [ 5.73076129e-01, 7.23007083e-01, 7.76182234e-01, 7.04347849e-01,
          0., 0., 0., 0., 2.13766558e-04, 7.69203305e-02, 9.99999940e-01,
          7.89154842e-02, 2.74333754e-03, 6.41299644e-04, 1.06883282e-03,
          1.78138798e-04, 0., 0., 0. ]
      - [ 2.87531346e-01, 3.68600637e-01, 4.30358529e-01, 4.34782594e-01,
          0., 0., 0., 0., 9.36271772e-02, 1., 3.42714787e-01,
          3.48119028e-02, 2.56176312e-02, 2.10555866e-02, 1.54407637e-03,
          1.40370583e-04, 0., 0., 0. ]
      - [ 1.42083913e-01, 2.10179374e-01, 2.68974125e-01, 2.86956519e-01,
          9.05797118e-04, 3.73641308e-03, 2.57019941e-02, 7.39583373e-01,
          1., 6.92934766e-02, 1.55117754e-02, 1.26811601e-02,
          1.25679346e-02, 1.41530801e-02, 3.39673925e-03, 1.13224634e-03,
          3.39673919e-04, 2.26449280e-04, 1.13224640e-04 ]
      - [ 5.34880042e-01, 6.73600852e-01, 6.83962584e-01, 7.13043451e-01,
          0., 0., 2.60014040e-03, 2.57905815e-02, 2.31482774e-01,
          9.99999940e-01, 7.42023885e-01, 1.35980323e-01, 3.11314110e-02,
          1.16654951e-02, 4.77863662e-03, 1.47575536e-03, 1.19465915e-03,
          7.02740654e-05, 1.40548131e-04 ]
      - [ 3.19823176e-01, 4.01659578e-01, 4.61098403e-01, 4.86956507e-01,
          8.63474968e-04, 1.53506664e-03, 4.12549172e-03, 2.65758410e-02,
          7.05171227e-01, 1., 2.04355747e-01, 7.86721632e-02,
          5.30557409e-02, 3.33876982e-02, 2.81109083e-02, 2.22584661e-02,
          7.77127501e-03, 3.26201669e-03, 1.15130004e-03 ]
      - [ 5.56700706e-01, 6.96440697e-01, 7.07017481e-01, 7.56521761e-01,
          1.21337136e-04, 6.06685680e-05, 1.82005708e-04, 1.21337140e-03,
          4.67147958e-03, 6.32469833e-01, 1., 2.10762605e-01,
          6.13359213e-02, 8.12958833e-03, 3.94345680e-03, 1.57738279e-03,
          1.82005708e-04, 0., 6.06685680e-05 ]
      - [ 5.83776653e-01, 7.28837132e-01, 7.22387433e-01, 7.65217364e-01,
          4.48249593e-05, 0., 0., 2.24124800e-04, 1.83782331e-03,
          1.17620692e-01, 1., 1.66210949e-01, 8.91568437e-02,
          4.07458879e-02, 2.28607301e-02, 2.75225248e-02, 3.76529666e-03,
          4.03424638e-04, 5.82724460e-04 ]
      - [ 5.02168596e-01, 5.96402586e-01, 6.60907686e-01, 5.82608700e-01,
          6.22122679e-05, 1.24424536e-04, 6.22122679e-05, 3.11061344e-03,
          5.63269854e-01, 1., 6.42652735e-02, 1.04081124e-01,
          3.52743566e-02, 9.08299070e-03, 1.80415576e-03, 1.18203310e-03,
          5.59910433e-04, 2.48849072e-04, 2.48849072e-04 ]
      - [ 3.16498876e-01, 3.89105111e-01, 5.53318083e-01, 3.30434769e-01,
          0., 0., 0., 1.89232655e-04, 2.06263587e-02, 9.99999940e-01,
          7.88532495e-01, 2.14968294e-01, 6.94483817e-02, 1.33409025e-02,
          1.79771020e-03, 3.78465309e-04, 0., 0., 0. ]
      - [ 4.06361878e-01, 5.07212996e-01, 5.61003029e-01, 5.56521714e-01,
          0., 0., 7.01057434e-04, 2.83928271e-02, 1., 3.25290650e-01,
          3.49944495e-02, 4.37576696e-02, 5.18198311e-02, 2.62896549e-02,
          2.74580834e-03, 7.59478891e-04, 0., 0., 0. ]
      - [ 5.59605420e-01, 6.98411644e-01, 6.45537734e-01, 8.08695674e-01,
          0., 0., 4.79616319e-05, 4.79616319e-05, 3.83693055e-04,
          1.29976021e-02, 1., 4.61199045e-01, 4.56115119e-02,
          1.31894490e-02, 5.27577940e-04, 0., 0., 0., 0. ]
      - [ 2.02789217e-01, 2.76777595e-01, 3.84248704e-01, 2.69565225e-01,
          1.47253711e-04, 4.41761134e-04, 1.69341767e-03, 3.31320852e-01,
          9.99999940e-01, 2.75364444e-02, 1.16330432e-02, 8.61434173e-03,
          3.75496969e-03, 2.94507423e-04, 0., 0., 0., 0., 0. ]
      - [ 2.64832079e-01, 3.36104810e-01, 3.68878752e-01, 4.00000006e-01,
          0., 0., 1.32978719e-03, 3.90070910e-03, 6.77038968e-01,
          9.99999940e-01, 5.52304946e-02, 6.80851042e-02, 2.09219847e-02,
          2.57092202e-03, 0., 0., 0., 0., 0. ]
      - [ 3.25956970e-01, 4.12822753e-01, 4.30358529e-01, 5.13043463e-01,
          0., 0., 1.60376338e-04, 1.49684586e-03, 7.97070414e-02,
          9.99999940e-01, 8.22196081e-02, 1.32577782e-02, 9.99679230e-03,
          1.57703403e-02, 1.62514690e-02, 1.07452152e-02, 3.68865603e-03,
          6.41505350e-04, 0. ]
      - [ 2.45876625e-01, 3.23268801e-01, 4.07303602e-01, 3.73913050e-01,
          0., 2.27002474e-03, 3.01913291e-01, 5.83828747e-01, 1.,
          1.05502106e-01, 4.75624241e-02, 9.92325172e-02, 3.94551940e-02,
          1.51334992e-02, 1.40525342e-03, 0., 0., 0., 0. ]
      - [ 6.40239835e-01, 8.09712291e-01, 8.37661803e-01, 7.65217125e-01,
          4.11946443e-04, 2.05973221e-04, 1.23583945e-04, 2.47167889e-04,
          4.11946443e-04, 7.00308988e-03, 1., 4.15118456e-01,
          2.90010311e-02, 1.11225538e-03, 9.47476830e-04, 1.23583945e-04,
          8.23892915e-05, 0., 0. ]
      - [ 8.21477115e-01, 6.52963877e-01, 6.37852490e-01, 7.73912787e-01,
          0., 0., 0., 0., 1.87105816e-02, 4.06937629e-01, 1.,
          5.24246633e-01, 1.73931316e-01, 2.10231245e-02, 1.26138749e-03,
          7.00770834e-05, 0., 0., 0. ]
      - [ 5.53471625e-01, 6.99007928e-01, 7.30072439e-01, 7.21739113e-01,
          3.75516320e-05, 7.51032640e-05, 1.50206528e-04, 2.62861431e-04,
          6.00826112e-04, 4.26962040e-02, 9.99999940e-01, 1.43785194e-01,
          8.59932415e-03, 7.13480986e-04, 1.05144572e-03, 1.50206528e-04,
          1.50206528e-04, 3.75516320e-05, 7.51032640e-05 ]
      - [ 7.08281994e-01, 9.23696101e-01, 8.60716701e-01, 9.04347539e-01,
          0., 0., 0., 0., 2.32245028e-03, 1.73847184e-01, 1.,
          8.27330872e-02, 2.90474575e-02, 1.57522708e-02, 3.23123531e-03,
          1.78391114e-03, 3.70245689e-04, 0., 0. ]
      - [ 5.66522717e-01, 5.03006101e-01, 6.99332535e-01, 5.82608700e-01,
          7.92330247e-05, 0., 1.58466049e-04, 1.58466049e-04,
          7.13097223e-04, 2.05213539e-02, 5.58355153e-01, 1.,
          2.33499721e-01, 1.52998969e-01, 8.32739100e-02, 1.29942158e-02,
          3.96165124e-04, 7.92330247e-05, 7.92330247e-05 ]
      - [ 4.39991355e-01, 5.56188643e-01, 6.22482836e-01, 5.73913038e-01,
          1.08997767e-04, 0., 0., 5.44988834e-05, 0., 1.14447658e-03,
          3.97078872e-01, 1., 6.47446737e-02, 3.36803086e-02,
          3.16093513e-03, 4.35991067e-04, 1.08997767e-04, 5.44988834e-05,
          1.63496647e-04 ]
      - [ 6.73639655e-01, 8.73809576e-01, 8.37662041e-01, 8.69565189e-01,
          0., 0., 0., 0., 2.49339239e-04, 1.47608835e-02, 1.,
          6.32124841e-01, 1.72093943e-01, 3.32119875e-02, 3.54061718e-03,
          8.47753428e-04, 0., 0., 0. ]
      - [ 3.31077844e-01, 4.16416854e-01, 4.53413427e-01, 5.04347801e-01,
          0., 8.37030238e-05, 1.33924838e-03, 4.26885439e-03,
          7.99447596e-01, 1., 2.87938397e-02, 2.34368462e-02,
          4.10144813e-02, 3.08864154e-02, 8.37030262e-03, 4.68736934e-03,
          5.02218143e-04, 0., 0. ]
      - [ 5.22517264e-01, 6.59208000e-01, 6.76277637e-01, 6.95652187e-01,
          0., 0., 3.03859008e-04, 1.22151328e-02, 1.58188999e-01, 1.,
          5.42692184e-01, 1.13704041e-01, 2.09662728e-02, 6.13795221e-03,
          5.77332126e-03, 3.64630832e-04, 6.07718030e-05, 0.,
          6.07718030e-05 ]
      - [ 1.38300672e-01, 2.00738698e-01, 2.68974125e-01, 2.69565225e-01,
          4.40044008e-04, 2.20022004e-04, 6.60066027e-03, 5.56435645e-01,
          1., 2.17931792e-01, 1.73817389e-02, 9.24092438e-03,
          6.60066027e-03, 3.41034099e-03, 1.32013205e-03, 3.30033014e-04,
          3.30033014e-04, 0., 0. ]
      - [ 2.83653080e-01, 3.39798272e-01, 3.68878752e-01, 4.34782594e-01,
          0., 0., 0., 1.52981058e-02, 4.11146939e-01, 1., 2.43612006e-01,
          4.20077741e-02, 8.60001612e-03, 1.65384932e-04, 0., 0., 0., 0.,
          0. ]
      - [ 4.49219882e-01, 5.59815824e-01, 6.83962584e-01, 5.65217376e-01,
          0., 0., 5.79374282e-05, 4.05561994e-04, 4.58285064e-02, 1.,
          4.21089232e-01, 7.99536481e-02, 4.32213210e-02, 9.03823879e-03,
          9.26998851e-04, 5.79374282e-05, 0., 0., 0. ]
      - [ 7.03715265e-01, 9.17104185e-01, 8.53031695e-01, 9.04347539e-01,
          6.67846543e-05, 0., 3.33923272e-05, 0., 3.00530955e-04,
          1.87698275e-01, 1., 7.23611712e-02, 1.20212380e-02,
          7.74702011e-03, 2.60460144e-03, 2.27067829e-03, 1.33569306e-03,
          5.67669573e-04, 1.66961632e-04 ]
      - [ 6.71423435e-01, 8.20047379e-01, 7.07017481e-01, 9.82608676e-01,
          0., 0., 0., 1.79775278e-04, 1.30337081e-03, 4.73617971e-01, 1.,
          1.08764045e-01, 1.47415726e-02, 1.03370787e-03, 3.59550555e-04,
          1.34831454e-04, 1.79775278e-04, 0., 1.34831454e-04 ]
      - [ 6.14960372e-01, 7.83361197e-01, 7.83867240e-01, 7.65217364e-01,
          3.17393133e-04, 2.11595427e-04, 3.52659030e-04, 7.40583986e-04,
          2.01015663e-03, 1.46494567e-01, 1., 5.23698665e-02,
          1.12498235e-02, 1.05797709e-03, 5.28988545e-04, 2.46861338e-04,
          7.05318089e-05, 3.52659044e-05, 3.52659044e-05 ]
      - [ 5.68738878e-01, 7.23089933e-01, 7.53127337e-01, 7.04347849e-01,
          0., 1.42146411e-04, 1.89528553e-04, 1.42146411e-04,
          3.79057106e-04, 1.13717129e-03, 1., 4.62165385e-01,
          6.46292344e-02, 1.05188349e-02, 3.60104255e-03, 2.84292822e-04,
          4.73821383e-05, 4.73821383e-05, 0. ]
      - [ 5.51025867e-01, 6.92763805e-01, 6.91647530e-01, 7.47826099e-01,
          0., 0., 0., 0., 0., 4.83664051e-02, 9.08775330e-01, 1.,
          3.62483948e-01, 6.49664178e-02, 8.67728051e-03, 1.50909225e-04,
          0., 0., 0. ]
      - [ 2.91314572e-01, 3.62969339e-01, 4.53413427e-01, 4.26086962e-01,
          0., 0., 6.52812538e-04, 7.61614600e-03, 3.98106843e-01, 1.,
          5.05276918e-01, 1.32303342e-01, 1.21205524e-01, 4.06919792e-02,
          4.98313569e-02, 4.88521382e-02, 1.00097917e-02, 8.05135444e-03,
          8.48656241e-03 ]
      - [ 1.95776805e-01, 2.68545955e-01, 3.76563728e-01, 2.52173901e-01,
          0., 0., 0., 3.71226459e-03, 1., 2.71065354e-01, 1.09266657e-02,
          6.79414440e-03, 4.41269157e-03, 5.67346066e-03, 2.17132457e-03,
          1.40085453e-04, 0., 0., 0. ]
      - [ 4.17616546e-01, 5.22864640e-01, 5.53317845e-01, 5.73912799e-01,
          0., 0., 6.32591109e-05, 4.20673080e-02, 1., 5.04870951e-01,
          4.61791493e-02, 6.66118413e-02, 1.25253042e-02, 7.59109331e-04,
          6.32591109e-05, 0., 0., 0., 0. ]
      - [ 1.56567678e-01, 2.26874471e-01, 2.53604174e-01, 3.21739137e-01,
          1.63025761e-04, 6.52103045e-04, 1.79328339e-03, 2.26035222e-01,
          1., 9.54515859e-02, 2.62471475e-02, 2.55135316e-02,
          2.29866318e-02, 8.72187782e-03, 1.46723189e-03, 8.15128806e-05,
          0., 0., 0. ]
      - [ 2.85085768e-01, 3.66762191e-01, 4.76468354e-01, 3.65217388e-01,
          0., 0., 0., 5.32141348e-05, 5.32141348e-05, 1.43678160e-03, 1.,
          1.16858236e-01, 3.01724151e-02, 1.17071101e-03, 7.98212015e-04,
          1.06428270e-04, 5.32141348e-05, 0., 0. ]
      - [ 5.10154665e-01, 6.34943783e-01, 7.07017481e-01, 6.34782612e-01,
          2.45992385e-04, 0., 1.22996193e-04, 8.19974593e-05,
          1.35295803e-03, 2.24263053e-02, 1., 1.66331843e-01,
          3.09950393e-02, 2.78791366e-03, 9.01972060e-04, 2.04993645e-04,
          4.09987297e-05, 0., 1.22996193e-04 ]
      - [ 6.38118684e-01, 8.10060143e-01, 8.60716939e-01, 7.47826099e-01,
          1.42945632e-04, 0., 1.90594175e-04, 0., 9.05322318e-04,
          3.74136358e-01, 1., 2.85271823e-01, 1.82970408e-02,
          1.95359020e-03, 1.28651073e-03, 2.85891263e-04, 0., 0., 0. ]
      - [ 5.42446494e-01, 6.89799070e-01, 7.53127098e-01, 6.69564962e-01,
          0., 4.01590296e-05, 0., 4.01590296e-05, 8.03180592e-05,
          5.42146899e-03, 1., 2.22681820e-01, 3.49785164e-02,
          5.10019669e-03, 1.12445280e-03, 1.20477089e-04, 8.03180592e-05,
          4.01590296e-05, 0. ]
      - [ 7.07728028e-01, 9.15530741e-01, 8.45346987e-01, 9.13043499e-01,
          0., 0., 0., 0., 8.80872540e-04, 4.84354049e-01, 1.,
          9.03104097e-02, 1.99244972e-02, 1.05704702e-02, 3.81711428e-03,
          3.81711428e-03, 1.88758399e-03, 1.63590605e-03, 4.19463089e-04 ]
      - [ 4.10374641e-01, 5.14185846e-01, 5.53318083e-01, 5.65217376e-01,
          0., 0., 0., 3.76242941e-04, 1.87691480e-01, 9.99999940e-01,
          1.40123621e-01, 4.92340736e-02, 2.80032232e-02, 6.55737706e-03,
          0., 0., 0., 0., 0. ]
      - [ 0., 0., 8.99473876e-02, 1.13145515e-01, 0., 1.18817762e-03,
          1.33669982e-03, 2.97044404e-03, 7.17362240e-02, 1.,
          4.05614138e-01, 3.78731601e-02, 4.75271046e-03, 8.91133212e-04,
          0., 0., 0., 0., 0. ]
      - [ 5.17721117e-01, 6.50777638e-01, 6.99332297e-01, 6.78260624e-01,
          6.99496377e-05, 0., 0., 0., 1.39899275e-04, 9.64605510e-02, 1.,
          8.01762760e-01, 1.68718532e-01, 5.53301647e-02, 6.50531612e-03,
          1.32904307e-03, 3.49748181e-04, 0., 1.39899275e-04 ]
      - [ 5.45351028e-01, 6.84051871e-01, 6.68592632e-01, 7.47826099e-01,
          0., 0., 0., 0., 3.53214238e-03, 2.49419719e-01, 1.,
          2.93874234e-01, 3.73397917e-02, 7.06428487e-04, 0., 0., 0., 0.,
          0. ]
      - [ 9.89013836e-02, 1.11863792e-01, 3.68878752e-01, 0., 0., 0.,
          2.64445320e-04, 5.68557438e-03, 3.22491080e-01, 1.,
          4.32764769e-01, 5.28890640e-02, 9.78447683e-03, 1.98333990e-03,
          0., 0., 0., 0., 0. ]
      - [ 4.98346031e-01, 6.21660590e-01, 6.91647530e-01, 6.34782612e-01,
          2.95608130e-04, 2.53378385e-04, 2.11148654e-04, 5.48986485e-04,
          1.26689195e-03, 1.32052362e-01, 1., 9.64527056e-02,
          1.29222972e-02, 2.95608130e-04, 5.06756769e-04, 4.22297308e-05,
          8.44594615e-05, 0., 1.26689192e-04 ]
      - [ 5.97873032e-02, 1.34471729e-01, 2.07494348e-01, 1.56521738e-01,
          0., 1.60163082e-03, 3.81479323e-01, 1., 5.49213767e-01,
          3.37798484e-02, 3.27606276e-02, 5.95515445e-02, 3.30518335e-02,
          1.07746068e-02, 1.16482237e-03, 0., 0., 0., 0. ]
      - [ 2.45093107e-01, 3.28469455e-01, 4.14988577e-01, 3.73913050e-01,
          0., 0., 0., 7.19424454e-04, 5.03597129e-03, 4.50519562e-01, 1.,
          9.32853669e-02, 4.76418845e-02, 3.94084714e-02, 4.07673838e-03,
          1.19904079e-03, 0., 0., 0. ]
      - [ 2.38215119e-01, 2.83866376e-01, 3.76563728e-01, 3.30434769e-01,
          0., 0., 0., 0., 1.26997568e-03, 5.06402791e-01, 1.,
          3.75383645e-01, 1.13980316e-01, 1.41813951e-02, 3.17493919e-04,
          0., 0., 0., 0. ]
      - [ 3.86662334e-01, 4.75644708e-01, 5.14893234e-01, 5.30434787e-01,
          7.87029785e-05, 5.50920842e-04, 1.18054473e-03, 2.69164182e-02,
          1., 7.77664125e-01, 6.45364448e-02, 4.65921648e-02,
          3.09302714e-02, 1.14906346e-02, 6.29623828e-04, 0., 0., 0., 0. ]
      - [ 6.38902187e-01, 8.05820107e-01, 7.60812283e-01, 8.52173924e-01,
          0., 0., 0., 0., 1.00586750e-03, 3.99385303e-01, 1.,
          3.30259830e-01, 2.00726449e-01, 2.91701593e-02, 7.65576959e-03,
          4.13523335e-03, 0., 0., 0. ]
      - [ 5.05033791e-01, 6.28865302e-01, 6.91647530e-01, 6.34782612e-01,
          0., 0., 4.92610852e-05, 1.97044341e-04, 1.37931039e-03,
          2.09704444e-01, 1., 2.36453205e-01, 1.56157641e-02,
          2.75862077e-03, 9.85221704e-04, 2.46305426e-04, 0., 0., 0. ]
      - [ 6.83002651e-01, 8.78960550e-01, 8.45346987e-01, 8.60869586e-01,
          0., 0., 0., 0., 3.57341394e-03, 3.60200107e-01, 1.,
          1.12443425e-01, 9.44969431e-03, 3.57341400e-04, 0., 0., 0., 0.,
          0. ]
      - [ 5.54025590e-01, 6.91074431e-01, 7.07017481e-01, 7.56521761e-01,
          3.96727002e-04, 1.98363501e-04, 2.47954391e-04, 1.04140840e-03,
          2.77708890e-03, 2.02082813e-01, 1., 2.16761723e-01,
          8.07835385e-02, 3.93751562e-02, 1.28440363e-02, 1.53235802e-02,
          4.46317892e-04, 2.97545252e-04, 1.48772626e-04 ]
      - [ 2.60170281e-01, 2.53838390e-01, 2.92028815e-01, 3.65217119e-01,
          0., 0., 0., 0., 2.79292315e-02, 7.99265623e-01, 1.,
          1.45654842e-01, 4.36185598e-02, 1.22399023e-03, 0., 0., 0., 0.,
          0. ]
      - [ 5.48580289e-01, 6.52433872e-01, 7.07017481e-01, 7.13043451e-01,
          0., 0., 1.22571553e-04, 7.35429348e-04, 1.83857325e-03,
          8.86805207e-02, 1., 4.36599880e-01, 1.61917016e-01,
          7.46460781e-02, 3.89164686e-02, 4.70061898e-02, 7.35429302e-03,
          1.40957290e-03, 4.22871858e-03 ]
      - [ 6.44022942e-01, 8.28428030e-01, 7.76181996e-01, 8.52173626e-01,
          0., 0., 0., 0., 8.02604016e-04, 1.08262368e-01, 1.,
          4.02951807e-01, 6.79538101e-02, 1.82369463e-02, 0., 0., 0., 0.,
          0. ]
      - [ 3.10594648e-01, 3.46887052e-01, 4.53413427e-01, 4.34782594e-01,
          8.81390064e-04, 1.38504151e-03, 1.13321573e-03, 7.18962476e-02,
          7.81037509e-01, 9.99999940e-01, 4.23193127e-01, 1.89498857e-01,
          9.74565521e-02, 1.32208504e-02, 1.93905812e-02, 2.05237959e-02,
          1.00730285e-02, 2.14051874e-03, 4.65877587e-03 ]
      - [ 4.39152092e-01, 4.83677566e-01, 4.76468354e-01, 5.91304362e-01,
          0., 3.19820887e-04, 2.39865665e-04, 5.59686567e-04,
          5.59686567e-04, 2.18277760e-02, 9.99999940e-01, 5.43455660e-01,
          2.74086505e-01, 9.66658667e-02, 4.22163568e-02, 3.34212817e-02,
          3.83785064e-03, 0., 7.99552217e-05 ]
      - [ 2.39418253e-01, 3.18200648e-01, 4.07303602e-01, 3.56521726e-01,
          0., 1.19073398e-03, 3.12838286e-01, 5.71335793e-01, 1.,
          9.76401791e-02, 4.84953448e-02, 8.95215422e-02, 4.27581742e-02,
          2.00259797e-02, 2.81446194e-03, 3.24745604e-04, 0., 0., 0. ]
      - [ 4.94277656e-01, 3.52435529e-01, 4.68783379e-01, 5.47826111e-01,
          1.84604025e-04, 0., 0., 6.15346726e-05, 6.15346726e-05,
          4.30742715e-04, 3.39671411e-02, 9.99999940e-01, 2.72721678e-01,
          4.36896179e-03, 3.07673356e-04, 6.15346726e-05, 6.15346726e-05,
          6.15346726e-05, 6.15346726e-05 ]
      - [ 4.62270975e-01, 5.79724073e-01, 6.30167782e-01, 6.00000024e-01,
          1.32608402e-04, 2.21014023e-04, 3.09419614e-04, 8.84056091e-04,
          8.66816938e-02, 1., 4.19926643e-02, 6.82933331e-02,
          3.22238430e-02, 1.10949036e-02, 2.47535692e-03, 1.76811212e-04,
          8.84056062e-05, 0., 0. ]
      - [ 3.34900379e-01, 2.83800125e-01, 3.30453902e-01, 4.69565213e-01,
          0., 0., 0., 0., 0., 0., 2.79723138e-01, 1., 2.05618907e-02,
          2.64657987e-03, 0., 0., 0., 0., 0. ]
      - [ 2.71939486e-01, 3.52435529e-01, 4.45728451e-01, 3.82608682e-01,
          0., 0., 0., 6.25078101e-05, 7.23215342e-02, 9.99999940e-01,
          1.17077127e-01, 1.21702708e-01, 1.94399282e-02, 8.12601531e-04,
          0., 0., 0., 0., 0. ]
      - [ 6.78435922e-01, 8.72037351e-01, 8.53031933e-01, 8.43478262e-01,
          1.24724567e-04, 0., 2.07874269e-04, 5.82047971e-04,
          1.03937136e-03, 9.03837308e-02, 1., 3.95376861e-01,
          4.56076153e-02, 6.06992887e-03, 3.03496444e-03, 2.24504224e-03,
          2.07874269e-04, 8.31497091e-05, 8.31497091e-05 ]
      - [ 5.12275696e-01, 6.42678499e-01, 6.22482598e-01, 7.21738875e-01,
          0., 0., 0., 0., 0., 5.46869673e-02, 1., 9.52754796e-01,
          4.69038039e-02, 1.29719393e-03, 0., 0., 0., 0., 0. ]
      - [ 5.23854911e-01, 6.57899559e-01, 6.83962584e-01, 6.86956525e-01,
          0., 0., 0., 0., 0., 5.01282793e-03, 1., 1.28873095e-01,
          4.14446406e-02, 2.41563059e-02, 7.34162237e-03, 2.01302557e-03,
          3.94710878e-05, 0., 0. ]
      - [ 6.56385720e-01, 8.38879049e-01, 7.99236894e-01, 8.52173626e-01,
          6.00985601e-04, 1.20197124e-04, 3.20525665e-04, 1.24203693e-03,
          2.60427105e-03, 1.29692703e-01, 1., 1.79935098e-01,
          5.89366555e-02, 3.38955894e-02, 1.52650345e-02, 1.77891739e-02,
          5.36880502e-03, 9.61576996e-04, 8.01314134e-04 ]
      - [ 4.84036058e-01, 4.53036755e-01, 4.84153330e-01, 6.34782612e-01,
          0., 0., 0., 0., 0., 0., 7.66278133e-02, 1., 6.23507947e-02,
          4.68099061e-05, 0., 0., 0., 0., 0. ]
      - [ 2.39418253e-01, 3.17869395e-01, 4.07303363e-01, 3.56521487e-01,
          0., 0., 0., 1.28103003e-01, 1., 5.39551675e-01, 3.58466096e-02,
          3.41793261e-02, 5.45572415e-02, 6.23379014e-02, 8.98480881e-03,
          8.33642087e-04, 9.26268985e-05, 0., 0. ]
      - [ 4.50691879e-01, 5.60793042e-01, 5.99427879e-01, 6.00000024e-01,
          1.65535501e-04, 1.10357003e-04, 7.72499014e-04, 1.65535510e-03,
          3.56342763e-01, 1., 6.33449182e-02, 4.82811891e-02,
          3.93422730e-02, 9.60105937e-03, 1.93124753e-03, 4.41428012e-04,
          5.51785015e-05, 0., 2.75892497e-04 ]
      - [ 6.68518901e-01, 8.65346074e-01, 8.76086891e-01, 8.08695674e-01,
          0., 0., 0., 3.60464292e-05, 3.60464292e-05, 1.10266030e-01, 1.,
          1.98615819e-01, 2.06185579e-02, 3.02790012e-03, 7.93021463e-04,
          0., 0., 0., 0. ]
      - [ 6.17730558e-01, 7.87982166e-01, 7.76182234e-01, 8.17391276e-01,
          8.96385987e-04, 0., 0., 0., 1.62979268e-04, 4.78751585e-02, 1.,
          2.86069363e-01, 3.43071371e-02, 2.39579529e-02, 7.66002573e-03,
          2.40394427e-03, 1.14085490e-03, 6.11172232e-04, 6.51917071e-04 ]
      - [ 2.41539270e-01, 3.18415940e-01, 3.99618387e-01, 3.56521487e-01,
          0., 0., 1.26918196e-03, 4.73635644e-01, 1., 5.81862211e-01,
          8.76889378e-02, 1.47802010e-01, 2.43452173e-02, 5.88438893e-03,
          1.15380179e-04, 0., 0., 0., 0. ]
      - [ 6.53481007e-01, 8.41876864e-01, 7.99237132e-01, 8.69565189e-01,
          0., 0., 0., 0., 0., 1.63413599e-01, 1., 9.16084945e-02,
          3.67929898e-02, 3.24120256e-03, 5.34264138e-04, 0., 0., 0., 0. ]
      - [ 6.33227348e-01, 8.03700089e-01, 8.29977036e-01, 7.47826099e-01,
          1.18586446e-04, 7.90576305e-05, 2.76701699e-04, 5.53403399e-04,
          6.32461044e-04, 2.57095426e-01, 9.99999940e-01, 1.15345083e-01,
          1.04751363e-02, 6.32461044e-04, 3.55759345e-04, 3.95288153e-05,
          3.95288153e-05, 0., 3.95288153e-05 ]
      - [ 5.45905173e-01, 6.64491475e-01, 7.91552186e-01, 6.17391288e-01,
          4.89045378e-05, 1.95618151e-04, 2.44522700e-04, 7.82472605e-04,
          9.78090800e-04, 1.42312208e-02, 1., 4.83079016e-01,
          4.84154932e-03, 1.61384977e-03, 7.82472605e-04, 1.46713617e-04,
          4.89045378e-05, 0., 0. ]
      - [ 5.63064039e-01, 7.09342957e-01, 6.91647530e-01, 7.47826099e-01,
          0., 0., 0., 0., 3.49365320e-04, 7.21148252e-01, 1.,
          7.31338039e-02, 4.77465950e-02, 2.29416564e-02, 3.72656342e-03,
          1.74682657e-03, 5.82275563e-04, 0., 2.32910214e-04 ]
      - [ 3.51006895e-01, 4.10702765e-01, 6.98532104e-01, 2.98402995e-01,
          1.76429079e-04, 0., 0., 0., 2.02893442e-03, 1.53140441e-01, 1.,
          5.11997163e-01, 1.90984473e-01, 6.93366304e-02, 4.18136902e-02,
          6.40437528e-02, 5.02822874e-03, 2.64643633e-04, 0. ]
      - [ 4.98021454e-01, 6.18149281e-01, 6.83962584e-01, 6.17391288e-01,
          1.72838438e-04, 4.32096094e-05, 1.29628825e-04, 3.02467262e-04,
          9.50611429e-04, 4.11355495e-02, 1., 1.99887648e-01,
          2.66603287e-02, 1.25307869e-03, 8.64192203e-04, 1.72838438e-04,
          1.29628825e-04, 0., 4.32096094e-05 ]
      - [ 4.54704523e-01, 5.62929571e-01, 5.84057927e-01, 6.17391288e-01,
          1.74499757e-04, 3.48999514e-04, 1.39599806e-03, 7.79432291e-03,
          1., 4.49104220e-01, 5.02559319e-02, 6.33434132e-02,
          2.60586310e-02, 7.32898992e-03, 1.10516523e-03, 4.65332705e-04,
          1.16333176e-04, 3.48999514e-04, 5.81665881e-05 ]
      - [ 2.52564400e-01, 3.32858533e-01, 4.07303602e-01, 3.73913050e-01,
          0., 0., 3.36360594e-04, 1.79280192e-01, 8.47068071e-01, 1.,
          6.76084757e-02, 1.43401727e-01, 5.94237037e-02, 7.51205301e-03,
          7.84841366e-04, 0., 0., 0., 0. ]
      - [ 6.81665063e-01, 8.76724601e-01, 7.76181996e-01, 9.39130187e-01,
          1.47579689e-04, 0., 1.47579689e-04, 1.47579689e-04,
          1.57319948e-01, 1., 5.49242437e-01, 8.70228261e-02,
          3.15820538e-02, 9.39590670e-03, 2.16450216e-03, 3.44352622e-04,
          9.83864593e-05, 0., 9.83864593e-05 ]
      - [ 5.91343105e-01, 7.52621055e-01, 7.60812283e-01, 7.56521761e-01,
          0., 0., 0., 9.09338924e-05, 4.09202505e-04, 1.24397568e-01, 1.,
          3.51414025e-01, 4.31935973e-02, 6.22897176e-03, 8.63872003e-04,
          1.81867785e-04, 1.81867785e-04, 0., 0. ]
      - [ 5.99922597e-01, 7.52902567e-01, 7.14702487e-01, 8.17391276e-01,
          0., 0., 0., 0., 6.45591039e-03, 2.40969419e-01, 1.,
          4.45457816e-01, 2.50038430e-02, 1.53712148e-03, 0., 0., 0., 0.,
          0. ]
      - [ 2.73277134e-01, 3.49470824e-01, 5.14893234e-01, 3.04347813e-01,
          1.11629127e-03, 8.53634498e-04, 4.92481468e-03, 1.85829669e-01,
          1., 1.36318862e-01, 2.89579090e-02, 2.53463779e-02,
          6.89474028e-03, 5.90977725e-04, 7.87970319e-04, 3.28320952e-04,
          1.31328386e-04, 0., 0. ]
      - [ 4.28680956e-01, 4.75545317e-01, 4.45728451e-01, 6.17391288e-01,
          0., 8.39489585e-05, 8.39489585e-05, 2.51846883e-04,
          2.51846883e-04, 2.26326391e-01, 1., 4.47196096e-01,
          2.17511758e-01, 4.75990586e-02, 4.17226329e-02, 8.79785120e-02,
          7.38750817e-03, 3.60980514e-03, 2.26662192e-03 ]
      - [ 6.73315048e-01, 8.68476391e-01, 8.76086652e-01, 7.99999714e-01,
          0., 0., 0., 0., 9.94200454e-05, 7.06213713e-02, 9.99999940e-01,
          1.24838434e-01, 3.13173160e-02, 2.15410092e-03, 5.96520258e-04,
          3.31400151e-05, 0., 3.31400151e-05, 0. ]
      - [ 5.98814547e-01, 7.37896860e-01, 7.30072439e-01, 7.82608688e-01,
          6.36492216e-04, 0., 1.41442710e-04, 0., 4.95049462e-04,
          3.10678899e-01, 9.99999940e-01, 6.71004236e-01, 2.64356434e-01,
          7.29844347e-02, 1.07496455e-02, 8.48656241e-03, 4.95049462e-04,
          1.41442710e-04, 2.82885419e-04 ]
      - [ 4.38099742e-01, 5.49729228e-01, 5.91742933e-01, 6.00000024e-01,
          0., 5.19750538e-05, 8.83575936e-04, 4.36590472e-03,
          3.06912690e-01, 1., 5.56652844e-02, 4.85447012e-02,
          2.33887741e-03, 1.55925169e-04, 0., 0., 0., 0., 0. ]
      - [ 3.03906739e-01, 3.88045102e-01, 5.37947893e-01, 3.39130163e-01,
          1.30804445e-04, 6.54022224e-05, 3.27011105e-04, 7.58665800e-03,
          2.02485278e-01, 1., 1.50752127e-01, 6.41595796e-02,
          2.58338787e-02, 3.40091554e-03, 9.81033314e-04, 1.30804442e-03,
          5.23217779e-04, 5.23217779e-04, 4.57815564e-04 ]
      - [ 4.61851358e-01, 4.24648464e-01, 7.53127337e-01, 2.86956519e-01,
          0., 7.92079227e-05, 1.58415845e-04, 1.58415845e-04,
          4.75247536e-04, 1.82178221e-03, 9.09306929e-02, 1.,
          4.42693084e-01, 2.84752488e-01, 3.12079210e-02, 3.16831702e-03,
          7.92079227e-05, 0., 1.58415845e-04 ]
      - [ 7.05092192e-01, 8.79341483e-01, 7.91551948e-01, 8.69564950e-01,
          1.52029592e-04, 5.06765318e-05, 2.02706127e-04, 1.52029592e-04,
          4.56088776e-04, 8.81771650e-03, 7.88020074e-01, 1.,
          7.67242685e-02, 9.52718779e-03, 2.83788587e-03, 1.41894293e-03,
          4.56088776e-04, 2.02706127e-04, 2.53382663e-04 ]
      - [ 6.39266074e-01, 7.75924623e-01, 8.06922138e-01, 7.21739113e-01,
          3.51061972e-05, 1.40424789e-04, 3.15955782e-04, 8.77654937e-04,
          2.14147801e-03, 2.54870988e-02, 1., 1.70124635e-01,
          3.40530113e-03, 2.10637183e-04, 4.91486746e-04, 1.75530993e-04,
          1.40424789e-04, 7.02123943e-05, 7.02123943e-05 ]
      - [ 4.59366292e-01, 5.76825619e-01, 6.30167782e-01, 6.17391288e-01,
          4.21318728e-05, 0., 0., 8.42637455e-05, 4.21318720e-04,
          1.43248367e-03, 1.45354956e-01, 1., 3.59384865e-02,
          4.21318738e-03, 1.64314301e-03, 8.42637455e-05, 4.21318728e-05,
          0., 0. ]
      - [ 2.38080621e-01, 3.17422211e-01, 4.07303602e-01, 3.56521726e-01,
          0., 0., 5.06773219e-03, 4.27248806e-01, 1., 3.39732975e-01,
          5.74018136e-02, 1.06617287e-01, 2.27073394e-02, 4.77536302e-03,
          9.74563882e-05, 0., 0., 0., 0. ]
      - [ 4.71309423e-01, 5.86696923e-01, 6.14797831e-01, 5.91304362e-01,
          0., 0., 0., 0., 0., 0., 1.70377254e-01, 1., 2.74175145e-02,
          1.68983141e-04, 0., 0., 0., 0., 0. ]
      - [ 3.43440443e-01, 4.27430987e-01, 4.38043505e-01, 5.47826111e-01,
          4.11437999e-04, 4.80010989e-04, 1.30288699e-03, 2.06404720e-02,
          1., 4.91874099e-01, 3.20235901e-02, 1.83089897e-02,
          2.07776185e-02, 1.89947207e-02, 3.42864986e-03, 2.74291990e-04,
          0., 0., 0. ]
      - [ 3.70382011e-01, 4.64034319e-01, 5.22578180e-01, 5.39130449e-01,
          7.69607548e-04, 0., 1.39928641e-04, 1.39928644e-03,
          3.63814458e-03, 1.44476324e-01, 1., 4.14468646e-01,
          9.78101194e-02, 4.14888412e-02, 1.19638992e-02, 6.78653922e-03,
          1.11942913e-03, 6.99643220e-04, 6.99643220e-04 ]
      - [ 5.85802734e-01, 6.82064354e-01, 7.37757146e-01, 6.95651889e-01,
          0., 0., 0., 4.78049536e-04, 9.48131550e-03, 4.68966603e-01,
          9.99999940e-01, 4.08094943e-01, 2.79499620e-01, 1.08118869e-01,
          5.09122759e-02, 1.34491265e-01, 2.42211763e-02, 7.88781699e-03,
          7.88781699e-03 ]
      - [ 5.48485219e-01, 6.61029875e-01, 6.91647530e-01, 6.86956525e-01,
          0., 0., 7.87587633e-05, 9.45105159e-04, 2.52028042e-03,
          9.15964395e-02, 1., 6.97802663e-01, 2.35961258e-01,
          1.50901794e-01, 6.06442466e-02, 1.00102387e-01, 2.70930137e-02,
          9.92360432e-03, 1.38615426e-02 ]
      - [ 6.61277056e-01, 8.48154128e-01, 7.99237132e-01, 8.86956513e-01,
          0., 0., 0., 0., 3.55265038e-05, 1.05442666e-01, 1.,
          1.56529769e-01, 3.21514867e-02, 2.45132879e-03, 1.06579508e-04,
          0., 0., 3.55265038e-05, 0. ]
      - [ 5.76344669e-01, 6.25718415e-01, 6.30167782e-01, 7.73913026e-01,
          2.86697235e-04, 5.01720177e-04, 7.16743059e-04, 5.16055012e-03,
          9.99999940e-01, 8.19094002e-01, 9.40366909e-02, 1.54099762e-01,
          4.94552739e-02, 6.73738495e-03, 1.36181188e-03, 0.,
          7.16743089e-05, 0., 0. ]
      - [ 2.31622264e-01, 3.09637785e-01, 3.91933441e-01, 3.56521487e-01,
          0., 9.04595386e-03, 2.90676624e-01, 7.37908602e-01, 1.,
          1.74285367e-01, 4.80038598e-02, 9.10625979e-02, 3.98021936e-02,
          1.47147514e-02, 4.82450851e-04, 0., 0., 0., 0. ]
      - [ 3.43440443e-01, 4.26635981e-01, 4.30358529e-01, 5.56521714e-01,
          1.04695595e-04, 2.09391190e-04, 3.14086792e-04, 1.18306018e-02,
          1., 1.45998001e-01, 2.93147657e-02, 3.16704176e-02,
          9.10851639e-03, 1.25634717e-03, 0., 0., 0., 0., 0. ]
      - [ 5.63388646e-01, 7.14709222e-01, 6.83962584e-01, 7.82608688e-01,
          0., 0., 0., 0., 1.16056798e-03, 8.06936026e-02, 8.74317288e-01,
          9.99999940e-01, 2.23170385e-01, 2.86045857e-02, 2.04806100e-03,
          0., 0., 0., 0. ]
      - [ 4.70240772e-01, 2.92429239e-01, 2.92029023e-01, 6.95652187e-01,
          1.20860524e-04, 2.41721049e-04, 4.83442098e-04, 2.74353400e-02,
          1., 8.26927722e-01, 2.77495772e-01, 1.83224559e-01,
          2.82813627e-02, 2.65893154e-03, 4.83442098e-04, 0., 0., 0., 0. ]
      - [ 3.53682041e-01, 4.41177934e-01, 4.76468354e-01, 5.39130449e-01,
          0., 0., 0., 0., 0., 3.00774496e-04, 7.42837787e-01, 1.,
          5.78990914e-02, 7.06820050e-03, 7.51936241e-05, 0., 0., 0., 0. ]
      - [ 5.03371716e-01, 5.95557928e-01, 6.30167782e-01, 6.78260863e-01,
          1.36767718e-04, 9.11784809e-05, 4.55892405e-05, 4.55892412e-04,
          8.19238648e-02, 1., 8.79416466e-02, 9.47800279e-02,
          3.09550948e-02, 7.11192144e-03, 3.73831764e-03, 4.10303153e-04,
          0., 4.55892405e-05, 0. ]
      - [ 5.13747811e-01, 5.83367825e-01, 7.30072439e-01, 5.39130449e-01,
          0., 0., 0., 0., 6.30795403e-05, 2.34214336e-01, 9.99999940e-01,
          3.63022745e-01, 1.38964221e-01, 2.97735427e-02, 7.38030626e-03,
          1.13543170e-02, 2.77549983e-03, 3.78477242e-04, 1.26159081e-04 ]
      - [ 5.58821857e-01, 7.08481729e-01, 7.45442092e-01, 7.04347551e-01,
          1.74112909e-04, 3.48225803e-05, 1.74112909e-04, 1.74112909e-04,
          4.17870964e-04, 1.85604356e-02, 1., 9.33245122e-02,
          8.67082272e-03, 5.57161286e-04, 6.26806461e-04, 6.96451607e-05,
          3.48225803e-05, 0., 3.48225803e-05 ]
      - [ 6.34105921e-01, 8.12693596e-01, 7.83867240e-01, 8.34782600e-01,
          0., 0., 0., 0., 0., 2.70188898e-02, 9.99999940e-01,
          2.77301103e-01, 2.66049504e-02, 1.05366146e-03, 3.76307653e-05,
          0., 0., 0., 0. ]
      - [ 5.41338384e-01, 6.80987775e-01, 6.60907686e-01, 7.56521761e-01,
          4.38846728e-05, 0., 0., 0., 8.77693456e-05, 2.33071491e-01, 1.,
          9.68534723e-02, 3.77847031e-02, 5.26616070e-03, 1.09711685e-03,
          1.31654015e-04, 1.75538691e-04, 4.38846728e-05, 4.38846728e-05 ]
      - [ 3.57140690e-01, 4.40548539e-01, 4.38043505e-01, 5.73913038e-01,
          1.50681837e-04, 1.05477287e-03, 3.08897765e-03, 2.24515945e-02,
          1., 6.36781454e-01, 6.54712617e-02, 3.33006866e-02,
          2.38077305e-02, 1.24312518e-02, 1.80818210e-03, 1.50681837e-04,
          0., 0., 0. ]
      - [ 5.15275419e-01, 6.43639147e-01, 7.30072439e-01, 6.26086950e-01,
          0., 0., 0., 0., 2.37285451e-04, 2.06042863e-02, 1.,
          1.63015112e-01, 8.46318156e-03, 1.06778461e-03, 5.93213656e-04,
          7.90951526e-05, 7.90951526e-05, 0., 0. ]
      - [ 2.61143893e-01, 3.39665771e-01, 4.14988577e-01, 3.73913050e-01,
          0., 8.17216001e-04, 1.73249796e-01, 5.09534180e-01, 1.,
          8.62162888e-01, 5.77499308e-02, 8.56714770e-02, 6.41514584e-02,
          6.03377819e-02, 1.96131840e-02, 5.99291734e-03, 2.72405334e-04,
          0., 0. ]
      - [ 5.03601253e-01, 6.21842742e-01, 6.99332297e-01, 5.82608402e-01,
          0., 0., 0., 0., 0., 2.15968583e-03, 1., 8.35798442e-01,
          7.78795853e-02, 9.29319393e-03, 2.02879589e-03, 2.74869101e-03,
          5.23560215e-04, 4.58115188e-04, 2.61780107e-04 ]
      - [ 3.59815836e-01, 4.39786673e-01, 6.07112646e-01, 3.82608443e-01,
          7.69171602e-05, 0., 0., 0., 0., 2.69210059e-03, 7.87016392e-01,
          1., 4.49196212e-02, 2.23059766e-03, 5.38420107e-04,
          7.69171602e-05, 0., 0., 0. ]
      - [ 5.17396569e-01, 6.49419487e-01, 6.91647291e-01, 6.60869300e-01,
          0., 0., 0., 0., 1.91552535e-04, 3.01599473e-01, 1.,
          1.27190888e-01, 1.99214630e-02, 3.06484057e-03, 1.14931515e-03,
          1.91552535e-04, 0., 0., 0. ]
      - [ 5.64172149e-01, 7.21499920e-01, 6.99332297e-01, 7.56521463e-01,
          5.16102409e-05, 0., 5.16102409e-05, 1.54830719e-04,
          3.09661438e-04, 1.80635846e-03, 6.38470292e-01, 1.,
          2.68373247e-02, 3.04500433e-03, 1.75474817e-03, 5.67712646e-04,
          0., 0., 1.54830719e-04 ]
      - [ 3.05378705e-01, 2.54666507e-01, 3.22768688e-01, 3.13043207e-01,
          9.45447682e-05, 2.83634290e-04, 7.56358146e-04, 1.03053795e-02,
          5.81639409e-01, 1., 1.11279190e-01, 1.16290068e-02,
          1.79635058e-03, 3.78179073e-04, 0., 9.45447682e-05, 0., 0., 0. ]
      - [ 4.99818027e-01, 6.17238343e-01, 6.83962584e-01, 5.82608700e-01,
          2.15285254e-04, 3.76749202e-04, 3.22927895e-04, 4.84391814e-04,
          1.02260499e-03, 7.01291710e-02, 1., 4.91657704e-01,
          1.12486547e-02, 2.47578043e-03, 3.76749202e-04, 2.15285254e-04,
          5.38213135e-05, 0., 0. ]
      - [ 6.67181253e-01, 8.54596972e-01, 8.45346987e-01, 8.43478262e-01,
          4.05910068e-05, 1.21773017e-04, 3.24728055e-04, 3.24728055e-04,
          8.52411147e-04, 5.51631786e-02, 1., 3.80703062e-01,
          4.42441963e-02, 3.57200857e-03, 1.05536613e-03, 9.74184135e-04,
          1.21773017e-04, 4.05910068e-05, 0. ]
      - [ 4.19832736e-01, 5.29224694e-01, 6.07112885e-01, 5.47826111e-01,
          4.47828061e-04, 0., 6.39754362e-05, 1.23472596e-02,
          5.53131640e-01, 1., 4.08803038e-02, 6.17362969e-02,
          2.18795985e-02, 6.78139646e-03, 1.66336133e-03, 1.08758244e-03,
          5.75778948e-04, 1.91926316e-04, 6.39754362e-05 ]
      - [ 5.93464255e-01, 7.56513238e-01, 7.37757385e-01, 7.73913026e-01,
          0., 0., 0., 0., 0., 5.01467707e-03, 9.67954993e-01, 1.,
          7.99290612e-02, 4.89236787e-03, 0., 0., 0., 0., 0. ]
      - [ 1.47434175e-01, 2.13756889e-01, 2.53604174e-01, 3.04347813e-01,
          7.56347901e-04, 1.29659637e-03, 1.40464613e-02, 1.,
          7.05456495e-01, 4.54889238e-02, 1.60994064e-02, 1.12371687e-02,
          9.72447358e-03, 1.10210693e-02, 6.48298208e-03, 2.37709354e-03,
          8.64397618e-04, 4.32198809e-04, 0. ]
      - [ 6.56939685e-01, 8.38862479e-01, 7.68497050e-01, 8.95651937e-01,
          0., 0., 0., 0., 0., 0., 8.91343713e-01, 1., 1.98141322e-01,
          2.51914188e-02, 4.09141387e-04, 0., 0., 0., 0. ]
      - [ 6.21972859e-01, 7.93315351e-01, 8.06921899e-01, 7.65217125e-01,
          0., 5.64206712e-05, 2.25682685e-04, 5.64206741e-04,
          1.04942452e-02, 8.26788545e-01, 1., 1.07932746e-01,
          1.65312570e-02, 2.25682685e-04, 9.59151424e-04, 2.25682685e-04,
          1.12841342e-04, 0., 5.64206712e-05 ]
      - [ 5.29759169e-01, 6.72226191e-01, 6.83962584e-01, 6.95652187e-01,
          0., 0., 0., 0., 5.99443389e-04, 7.42881596e-02, 1.,
          1.77478060e-01, 3.57096978e-02, 3.04431599e-02, 8.09248537e-03,
          5.56626008e-04, 0., 0., 0. ]
      - [ 3.79649848e-01, 4.01460826e-01, 5.30262947e-01, 3.99999738e-01,
          0., 7.66988815e-05, 6.13591052e-04, 1.02776503e-02,
          4.98005837e-01, 1., 6.58076406e-02, 1.33609459e-01,
          2.77649947e-02, 2.91455747e-03, 2.30096644e-04, 0., 0., 0., 0. ]
      - [ 5.22517264e-01, 6.60996735e-01, 6.76277637e-01, 6.95652187e-01,
          0., 0., 0., 8.83353205e-05, 6.27180794e-03, 1.90627620e-01, 1.,
          1.09977476e-01, 2.68097706e-02, 1.81529075e-02, 2.91506550e-03,
          8.83353205e-05, 0., 0., 0. ]
      - [ 3.25402975e-01, 4.06280547e-01, 5.37948132e-01, 3.82608682e-01,
          7.20409225e-05, 2.88163690e-04, 5.04286436e-04, 2.01714574e-03,
          4.30876762e-01, 1., 1.03162602e-01, 9.88401473e-02,
          8.50082841e-03, 1.22469570e-03, 3.60204605e-04, 7.20409225e-05,
          7.20409225e-05, 7.20409225e-05, 0. ]
      - [ 4.09725487e-01, 3.80525708e-01, 5.37948132e-01, 4.34782594e-01,
          0., 0., 1.14995404e-03, 4.75314334e-02, 1., 5.84866583e-01,
          3.56485732e-02, 1.54093839e-02, 9.50628612e-03, 2.45323521e-03,
          9.96626797e-04, 3.06654401e-04, 0., 0., 0. ]
      - [ 2.37756178e-01, 3.12122166e-01, 3.91933441e-01, 3.47825825e-01,
          0., 5.42054418e-04, 1.02448285e-01, 4.65082675e-01, 1.,
          6.17942028e-02, 6.31493405e-02, 1.04706839e-01, 1.09314304e-02,
          9.93766356e-04, 0., 0., 0., 0., 0. ]
      - [ 5.34650505e-01, 6.79447472e-01, 7.30072200e-01, 6.78260624e-01,
          3.97408876e-05, 3.97408876e-05, 7.94817752e-05, 3.57667974e-04,
          1.66911725e-03, 2.30497140e-02, 9.99999940e-01, 1.95843101e-01,
          1.62937641e-02, 2.06652610e-03, 6.75595074e-04, 0.,
          3.97408876e-05, 0., 0. ]
      - [ 5.18504679e-01, 6.52102649e-01, 7.07017481e-01, 6.60869539e-01,
          0., 1.13102979e-04, 2.26205957e-04, 3.95860436e-04,
          9.04823828e-04, 2.25074925e-02, 1., 5.96391976e-01,
          8.52796435e-02, 1.87185425e-02, 1.58344174e-03, 4.52411914e-04,
          0., 0., 5.65514893e-05 ]
      - [ 6.17176592e-01, 7.84421206e-01, 7.99237132e-01, 7.82608688e-01,
          2.47300311e-04, 0., 0., 4.12167174e-05, 4.12167174e-05,
          1.60333030e-02, 1., 2.41777271e-01, 7.48907775e-02,
          3.68889607e-02, 2.12266091e-02, 2.76976340e-02, 2.55543645e-03,
          9.06767789e-04, 8.24334347e-05 ]
      - [ 1.50109306e-01, 2.21110687e-01, 2.92029023e-01, 2.60869563e-01,
          0., 7.11068977e-04, 1.18511496e-03, 1.73026789e-02, 1.,
          8.09670568e-01, 3.61460075e-02, 2.38208100e-02, 2.53614597e-02,
          5.96112832e-02, 2.93908510e-02, 8.17729346e-03, 3.67385638e-03,
          5.80706354e-03, 4.97748284e-03 ]
      - [ 5.84330738e-01, 7.30344355e-01, 7.14702487e-01, 7.82608688e-01,
          6.31527801e-04, 0., 4.85790624e-05, 0., 4.85790624e-05,
          1.80228315e-02, 1., 3.16444010e-01, 1.13820747e-01,
          6.12096190e-02, 3.07019670e-02, 2.75443289e-02, 9.42433812e-03,
          2.72042747e-03, 5.68375038e-03 ]
      - [ 5.66293180e-01, 7.11247683e-01, 6.91647530e-01, 7.56521761e-01,
          0., 0., 0., 0., 1.18187780e-03, 9.99999940e-01, 9.45173979e-01,
          9.79645401e-02, 5.09520657e-02, 1.45764928e-02, 4.26789233e-03,
          2.03545624e-03, 5.25279029e-04, 6.56598786e-05, 1.96979643e-04 ]
      - [ 6.29539192e-01, 8.06134760e-01, 8.37662041e-01, 7.65217364e-01,
          3.65190099e-05, 0., 7.30380198e-05, 7.30380198e-05,
          3.65190092e-04, 1.11382976e-02, 1., 2.42267117e-01,
          2.53076740e-02, 2.37373565e-03, 8.03418225e-04, 1.46076040e-04,
          0., 0., 0. ]
      - [ 6.74977303e-01, 8.70977342e-01, 8.91456842e-01, 8.08695674e-01,
          0., 0., 0., 0., 0., 5.53139346e-03, 1., 4.56445545e-01,
          8.24219882e-02, 2.42367946e-02, 3.16682854e-03, 6.75590069e-04,
          0., 4.22243793e-05, 8.44487586e-05 ]
      - [ 3.80338311e-01, 4.16516215e-01, 5.53318083e-01, 4.08695638e-01,
          7.48129678e-04, 1.74563588e-03, 3.49127175e-03, 1.80299252e-01,
          9.99999940e-01, 5.25187016e-01, 9.63424742e-02, 1.13549456e-01,
          6.31753914e-03, 8.31255165e-05, 1.66251033e-04, 0.,
          8.31255165e-05, 0., 0. ]
      - [ 4.33572292e-01, 2.53374636e-01, 3.99690390e-01, 4.56347913e-01,
          8.23248556e-05, 2.46974581e-04, 8.23248527e-04, 2.46974570e-03,
          2.26722658e-01, 1., 2.38330454e-01, 1.48184737e-02,
          7.73853622e-03, 8.31481069e-03, 3.62229371e-03, 8.23248556e-05,
          0., 0., 0. ]
      - [ 1.70172870e-01, 2.24506021e-01, 3.76563728e-01, 1.65217385e-01,
          8.60881555e-05, 8.60881555e-05, 1.29132229e-03, 6.37052357e-02,
          1., 2.38808542e-01, 7.12809935e-02, 1.00292698e-01,
          4.21831943e-03, 3.44352622e-04, 8.60881526e-04, 1.72176311e-04,
          0., 0., 0. ]
      - [ 5.72522104e-01, 7.28091836e-01, 7.60812283e-01, 7.13043451e-01,
          0., 0., 0., 6.04777742e-05, 1.20955548e-04, 2.68521309e-02,
          6.66404605e-01, 1., 2.49047473e-01, 4.23344411e-02,
          1.93528878e-03, 5.44299954e-04, 6.04777742e-05, 6.04777742e-05,
          6.04777742e-05 ]
      - [ 2.91219532e-01, 3.56592745e-01, 3.91933441e-01, 4.52173650e-01,
          1.52078411e-03, 1.68976013e-03, 2.36566411e-03, 3.32882740e-02,
          1., 6.03666782e-01, 5.26360273e-02, 6.94491416e-02,
          3.15140262e-02, 9.54714417e-03, 2.53464008e-04, 0., 0., 0., 0. ]
      - [ 5.91248035e-01, 7.48894453e-01, 7.07017243e-01, 7.73912787e-01,
          1.68947445e-04, 1.12631635e-04, 1.68947445e-04, 4.50526539e-04,
          1.40789547e-03, 1.82463247e-02, 9.99999940e-01, 7.94278264e-01,
          4.38137054e-02, 1.41352704e-02, 1.80210616e-03, 1.68947445e-04,
          3.94210714e-04, 1.12631635e-04, 5.63158173e-05 ]
      - [ 5.45905173e-01, 6.92349732e-01, 7.14702487e-01, 7.04347849e-01,
          1.49153551e-04, 3.72883878e-05, 0., 1.11865163e-04,
          1.49153551e-04, 3.47900651e-02, 1., 1.10299051e-01,
          2.39391457e-02, 7.90513866e-03, 3.84070398e-03, 1.04407489e-03,
          2.98307103e-04, 0., 3.72883878e-05 ]
      - [ 3.16823453e-01, 3.99804562e-01, 5.30262947e-01, 3.82608443e-01,
          2.56783358e-04, 6.84755621e-04, 8.55944527e-04, 5.64923370e-03,
          7.40991175e-01, 1., 8.64503980e-02, 9.58657861e-02,
          4.10853373e-03, 1.62629457e-03, 2.56783358e-04, 0., 0., 0., 0. ]
      - [ 5.31650782e-01, 6.69973671e-01, 6.83962584e-01, 7.04347849e-01,
          8.99496314e-04, 0., 0., 3.59798520e-04, 1.37922761e-03,
          8.09546653e-03, 1., 5.46653867e-01, 1.41640678e-01,
          5.76277301e-02, 4.08371314e-02, 4.10769992e-02, 9.05492902e-03,
          3.23818671e-03, 2.39865668e-03 ]
      - [ 5.56146741e-01, 7.05434203e-01, 7.45442331e-01, 7.04347849e-01,
          9.90344124e-05, 2.97103252e-04, 2.47586024e-04, 7.42758100e-04,
          5.44689246e-04, 1.88165379e-03, 1., 5.11661291e-01,
          6.03119582e-02, 1.10423369e-02, 2.27779150e-03, 2.97103252e-04,
          9.90344124e-05, 0., 0. ]
      - [ 6.36820495e-01, 7.89091885e-01, 6.14797831e-01, 9.04347837e-01,
          0., 0., 0., 0., 0., 4.68762144e-02, 1., 2.74644047e-01,
          2.21349094e-02, 7.78028509e-04, 0., 0., 0., 0., 0. ]
      - [ 4.53137487e-01, 5.64420223e-01, 6.37852728e-01, 5.73913038e-01,
          0., 0., 5.92838514e-05, 1.36352854e-03, 4.71780896e-01, 1.,
          5.40668741e-02, 8.47166255e-02, 3.01161967e-02, 2.48992187e-03,
          0., 0., 0., 0., 0. ]
      - [ 6.88677549e-01, 8.87606204e-01, 8.53031933e-01, 8.78260851e-01,
          0., 0., 0., 0., 4.93339903e-05, 9.86679806e-04, 7.43907213e-01,
          1., 9.01825354e-02, 1.99309327e-02, 3.40404524e-03,
          7.89343845e-04, 0., 0., 0. ]
      - [ 3.57694805e-01, 4.44738895e-01, 4.45728451e-01, 5.73913038e-01,
          1.44592253e-04, 1.15673803e-03, 4.48235963e-03, 3.48467343e-02,
          1., 5.62246978e-01, 5.15471399e-02, 3.01474854e-02,
          3.30393314e-02, 1.90138817e-02, 6.21746667e-03, 7.22961267e-04,
          2.16888380e-04, 7.22961267e-05, 0. ]
      - [ 6.91906631e-01, 9.00375962e-01, 8.60716939e-01, 8.78260851e-01,
          0., 0., 0., 0., 3.12031945e-04, 9.03644562e-02, 1.,
          7.94121325e-02, 9.76660009e-03, 8.36245622e-03, 6.24063890e-04,
          0., 0., 0., 0. ]
      - [ 4.82429594e-01, 5.99698544e-01, 5.68688035e-01, 7.13043451e-01,
          5.52835292e-04, 1.18464697e-03, 1.27941873e-02, 6.38050854e-01,
          1., 4.52061296e-01, 8.98752213e-02, 3.25383060e-02,
          2.21134108e-02, 2.29031760e-02, 2.29031756e-03, 6.31811738e-04,
          7.89764672e-05, 7.89764672e-05, 7.89764672e-05 ]
      - [ 5.84330738e-01, 7.31702447e-01, 7.22387433e-01, 7.73913026e-01,
          2.68036616e-04, 0., 0., 2.23363866e-04, 1.51887420e-03,
          1.31159261e-01, 1., 1.71677455e-01, 9.08644199e-02,
          4.47174460e-02, 1.74223818e-02, 1.27764130e-02, 1.83158368e-03,
          5.80746040e-04, 4.46727718e-05 ]
      - [ 4.08292949e-01, 4.74005014e-01, 5.99427879e-01, 4.17391300e-01,
          9.61353580e-05, 0., 9.61353580e-05, 4.80676790e-05,
          2.40338399e-04, 1.11517012e-02, 1., 1.77658141e-01,
          5.47971530e-03, 3.36473749e-04, 1.92270716e-04, 1.44203033e-04,
          4.80676790e-05, 0., 9.61353580e-05 ]
      - [ 7.20644772e-01, 9.42130268e-01, 8.60716939e-01, 9.30434763e-01,
          8.20479181e-05, 0., 0., 0., 0., 1.10764685e-03, 1.,
          3.91696751e-01, 7.24893361e-02, 6.44896626e-02, 2.92911064e-02,
          3.62651795e-02, 9.39448643e-03, 4.14341968e-03, 1.80505426e-03 ]
      - [ 4.52717841e-01, 5.13854623e-01, 6.14797831e-01, 4.95652169e-01,
          1.40114897e-03, 1.89155107e-03, 2.14375779e-02, 1.99873894e-01,
          1., 4.18102831e-01, 6.20708950e-02, 5.25430851e-02,
          2.88636684e-02, 1.05086165e-02, 1.12091918e-02, 7.49614649e-03,
          2.38195318e-03, 1.47120631e-03, 3.22264247e-03 ]
      - [ 6.46698058e-01, 8.17562997e-01, 8.83771837e-01, 7.30434775e-01,
          0., 0., 0., 0., 0., 1.09876446e-01, 1., 2.46911183e-01,
          1.67456679e-02, 3.57448123e-03, 1.35985704e-03, 1.55412231e-03,
          3.10824456e-04, 1.55412228e-04, 3.88530570e-05 ]
      - [ 3.78407419e-01, 4.66353089e-01, 4.61098403e-01, 6.08695626e-01,
          0., 0., 0., 0., 1.57133880e-04, 4.99161966e-02, 1.,
          2.14330614e-01, 2.32558139e-02, 4.92352806e-03, 8.38047359e-04,
          2.09511840e-04, 5.23779599e-05, 0., 0. ]
      - [ 5.39161623e-01, 3.87415737e-01, 7.70723760e-01, 3.99348378e-01,
          0., 0., 0., 4.23728809e-04, 5.29661018e-04, 4.08898294e-02,
          5.56567788e-01, 1., 6.98622882e-01, 6.29237294e-02,
          7.73305073e-03, 1.90677959e-03, 0., 0., 0. ]
      - [ 3.40765297e-01, 4.27298486e-01, 4.53413427e-01, 5.30434787e-01,
          0., 1.51998785e-04, 9.11992742e-04, 2.05958355e-02, 1.,
          6.47818804e-01, 2.97917612e-02, 2.03678366e-02, 2.70557832e-02,
          2.97157634e-02, 9.87992063e-03, 4.40796465e-03, 3.03997571e-04,
          0., 0. ]
      - [ 4.72322464e-01, 4.97904837e-01, 4.22673553e-01, 6.60869539e-01,
          0., 0., 0., 0., 0., 0., 3.43211561e-01, 9.99999940e-01,
          1.57981236e-02, 1.59041505e-04, 0., 0., 0., 0., 0. ]
      - [ 6.28431201e-01, 8.03584158e-01, 8.22292089e-01, 7.65217364e-01,
          1.13370115e-04, 0., 1.88950202e-04, 1.13370115e-04,
          3.40110360e-04, 5.25281532e-03, 1., 2.76131809e-01,
          3.32552344e-02, 8.84286966e-03, 2.19182228e-03, 7.18010764e-04,
          2.26740231e-04, 1.13370115e-04, 3.02320317e-04 ]
      - [ 4.26559925e-01, 3.05165887e-01, 4.32237536e-01, 4.50764537e-01,
          7.33944980e-05, 9.54128453e-04, 1.68807351e-03, 3.79009187e-01,
          1., 5.80550469e-02, 5.35779819e-03, 1.90825691e-03,
          1.46788999e-03, 4.40366974e-04, 0., 0., 0., 0., 0. ]
      - [ 5.67955375e-01, 7.17955530e-01, 7.07017243e-01, 7.65217125e-01,
          0., 0., 0., 0., 0., 3.44355926e-02, 1., 2.14377657e-01,
          5.09695038e-02, 5.71244676e-03, 0., 0., 0., 0., 0. ]
      - [ 4.75322187e-01, 4.51330811e-01, 6.76277637e-01, 4.00000006e-01,
          1.31104549e-04, 6.55522745e-05, 1.31104549e-04, 1.96656823e-04,
          1.44214998e-03, 2.14945912e-01, 9.99999940e-01, 2.41560131e-01,
          8.23992118e-02, 4.85742353e-02, 6.22746628e-03, 1.44214998e-03,
          0., 0., 0. ]
      - [ 4.15495396e-01, 5.21125615e-01, 5.76372981e-01, 5.56521714e-01,
          0., 0., 0., 2.24955007e-03, 9.99999940e-01, 7.23005354e-01,
          6.61367700e-02, 5.88632263e-02, 5.92381507e-02, 6.95860833e-02,
          5.69886016e-03, 2.99940002e-04, 0., 0., 0. ]
      - [ 5.24963021e-01, 6.56773269e-01, 6.45537734e-01, 7.47826099e-01,
          3.27299465e-03, 6.07841834e-03, 4.28829081e-02, 1.,
          8.45367730e-01, 8.54318365e-02, 2.09738836e-02, 1.13552874e-02,
          5.21007320e-03, 6.01162296e-03, 2.40464904e-03, 1.20232452e-03,
          4.00774850e-04, 2.67183234e-04, 4.00774850e-04 ]
      - [ 2.82964587e-01, 3.64062488e-01, 4.61098403e-01, 3.91304344e-01,
          0., 0., 0., 1.64771787e-04, 4.94315382e-03, 1., 6.41786098e-01,
          6.30252063e-02, 5.79996705e-02, 2.07612459e-02, 4.69599571e-03,
          6.59087149e-04, 0., 0., 0. ]
      - [ 3.69273901e-01, 4.54792380e-01, 4.76468354e-01, 5.73913038e-01,
          8.05801770e-04, 2.05113180e-03, 3.88249941e-03, 4.90073971e-02,
          1., 6.04790866e-01, 6.16804622e-02, 2.51996182e-02,
          1.36253750e-02, 1.38451392e-02, 9.96263977e-03, 6.59292331e-04,
          3.66273511e-04, 1.46509410e-04, 0. ]
      - [ 3.46899092e-01, 4.23224062e-01, 5.76372743e-01, 3.82608443e-01,
          0., 0., 0., 0., 0., 4.67397086e-02, 1., 8.44142079e-01,
          1.44283444e-01, 2.35907417e-02, 5.91977406e-03, 3.26912897e-03,
          0., 0., 0. ]
      - [ 6.78989887e-01, 8.72848928e-01, 7.53127337e-01, 9.65217412e-01,
          0., 0., 0., 2.14346961e-04, 7.14489841e-04, 1.87946558e-01, 1.,
          1.18462421e-01, 1.80765931e-02, 1.92912261e-03, 2.50071462e-04,
          7.14489870e-05, 7.14489870e-05, 0., 7.14489870e-05 ]
      - [ 4.47233230e-01, 5.62449276e-01, 6.37852728e-01, 5.65217376e-01,
          1.27291249e-04, 1.27291249e-04, 6.36456243e-05, 1.40020368e-03,
          5.86812675e-01, 1., 5.51807545e-02, 9.55320820e-02,
          2.17031576e-02, 2.03665998e-03, 6.36456243e-05, 0., 0., 0., 0. ]
      - [ 5.89261413e-01, 7.15090156e-01, 6.37852728e-01, 8.00000012e-01,
          1.08737859e-03, 8.54368904e-04, 6.99029129e-04, 2.01941747e-03,
          6.21359237e-03, 5.91145635e-01, 1., 2.83262134e-01,
          2.36970872e-01, 8.51262137e-02, 7.24660158e-02, 1.26135916e-01,
          1.21165048e-02, 1.89514551e-02, 7.84466043e-03 ]
      - [ 4.75971222e-01, 5.89429736e-01, 6.76277637e-01, 5.73913038e-01,
          1.48599443e-04, 2.97198887e-04, 2.22899165e-04, 3.26918764e-03,
          8.99843931e-01, 9.99999940e-01, 7.78661072e-02, 1.17096364e-01,
          1.93179268e-02, 2.22899159e-03, 2.97198887e-04, 2.22899165e-04,
          0., 0., 0. ]
      - [ 6.07259572e-01, 7.79253662e-01, 7.91552186e-01, 7.82608688e-01,
          5.18369721e-04, 0., 0., 0., 3.69338435e-03, 9.47968602e-01, 1.,
          1.63221672e-01, 6.63513243e-02, 2.50113383e-02, 9.52504389e-03,
          4.01736517e-03, 6.47962152e-05, 0., 1.94388645e-04 ]
      - [ 4.94048119e-01, 5.60312688e-01, 6.83962345e-01, 5.13043225e-01,
          2.19250156e-04, 3.65416927e-04, 5.84667083e-04, 4.75041987e-03,
          4.96967044e-03, 8.47767293e-03, 1.65168457e-02, 9.99999940e-01,
          8.62530112e-01, 1.14156246e-01, 3.43491905e-03, 2.41175178e-03,
          1.46166771e-03, 5.84667083e-04, 6.57750468e-04 ]
      - [ 5.12046278e-01, 6.36964381e-01, 6.07112885e-01, 7.56521761e-01,
          1.04493205e-03, 2.23913998e-03, 1.00761307e-02, 9.62531686e-01,
          9.99999940e-01, 1.54873863e-01, 4.41110581e-02, 2.40334366e-02,
          2.02268995e-02, 1.16435280e-02, 2.98552006e-03, 7.46380014e-04,
          2.23914016e-04, 7.46380028e-05, 0. ]
      - [ 5.19842148e-01, 6.46189749e-01, 6.91647530e-01, 6.78260863e-01,
          0., 0., 5.04846539e-05, 5.04846539e-05, 1.56502426e-03,
          2.00626016e-01, 1., 2.37075940e-01, 6.58319890e-02,
          1.72152668e-02, 1.66599359e-03, 7.06785126e-04, 0.,
          5.04846539e-05, 1.51453962e-04 ]
      - [ 4.02024657e-01, 5.00339508e-01, 5.22578180e-01, 5.73913038e-01,
          0., 0., 1.14137481e-03, 1.07911797e-02, 1., 2.17172503e-01,
          4.30609584e-02, 5.69649786e-02, 9.28664021e-03, 9.85732768e-04,
          2.59403372e-04, 1.03761347e-04, 0., 0., 0. ]
      - [ 4.73850220e-01, 5.95309496e-01, 6.37852728e-01, 6.26086950e-01,
          0., 0., 0., 1.73882800e-04, 6.89735124e-03, 4.44966078e-01, 1.,
          9.94030014e-02, 6.54958561e-02, 3.58198583e-02, 8.52025673e-03,
          6.95531198e-04, 0., 0., 0. ]
   decision_functions:
      -
         sv_count: 28
         rho: 2.3818169045897730e-01
         alpha: [ 1.0975194794925713e+01, 3.1976650184552100e+00,
